%YAML:1.0
---
opencv_ml_svm:
   format: 3
   svmType: C_SVC
   kernel:
      type: LINEAR
   C: 1.
   term_criteria: { epsilon:1.1920928955078125e-07, iterations:1000 }
   var_count: 50
   class_count: 13
   class_labels: !!opencv-matrix
      rows: 13
      cols: 1
      dt: i
      data: [ 0, 1, 2, 3, 4, 5, 6, 7, 8, 9, 10, 11, 12 ]
   sv_total: 78
   support_vectors:
      - [ 2.00522039e-02, 1.78599730e-02, 4.74823348e-04,
          -1.17300474e-03, -6.92408159e-03, -1.06186570e-04,
          7.48416455e-03, 3.65794785e-02, 9.29938070e-03, 1.08328667e-02,
          -1.25871077e-02, -7.25917099e-03, 1.00618117e-02,
          -7.94839021e-03, 1.35731185e-03, -7.65837356e-03,
          -7.96332117e-03, 3.65887731e-02, 1.42784864e-02,
          2.96134539e-02, 1.03784595e-02, -1.21645229e-02,
          4.86450939e-04, 8.42971448e-03, 1.35292718e-02, 5.90242352e-03,
          5.87882064e-02, 2.09990554e-02, -1.26093039e-02,
          -2.04010587e-03, 1.53813208e-03, -3.39159220e-02,
          6.78008515e-03, 3.04930564e-02, 8.57643969e-03,
          -3.16268159e-03, 1.35132791e-02, -7.26925582e-02,
          1.62710976e-02, -3.65275815e-02, -5.14273271e-02,
          -2.77611203e-02, -3.22480574e-02, -9.17532574e-03,
          6.23205453e-02, -1.36614619e-02, 1.83612900e-03,
          4.19433694e-03, 2.07541678e-02, -1.07660638e-02 ]
      - [ -1.92775275e-03, 1.52627286e-02, 6.72301948e-02,
          -8.04952718e-03, -9.21544910e-04, 2.28100698e-02,
          4.78301160e-02, -5.79806743e-03, -1.42721822e-02,
          4.00640368e-02, 2.57173330e-02, 5.37699424e-02,
          -2.18963926e-03, 6.63819723e-03, 1.07674105e-02,
          7.96588976e-03, 3.49744875e-03, -2.28842907e-02,
          1.76556297e-02, -1.64012648e-02, -4.18519080e-02,
          1.52500328e-02, 4.12002951e-02, 1.74400629e-03,
          -2.77831983e-02, 5.62427565e-02, 3.91500443e-03,
          4.03049625e-02, 3.77384224e-03, -2.11785156e-02,
          -4.20978256e-02, -8.63087177e-02, -3.91227677e-02,
          6.34117648e-02, 2.46781595e-02, -3.28438804e-02,
          4.21823859e-02, -9.45488736e-02, 2.43751705e-02,
          -8.79750866e-03, -3.93360332e-02, 3.88044380e-02,
          -2.98616476e-02, 9.61787999e-02, 6.42781109e-02,
          -9.42481309e-03, 1.79916490e-02, 2.49262806e-02,
          -5.65742254e-02, 2.05073375e-02 ]
      - [ 3.32004502e-02, 4.91843885e-03, 1.73669290e-02, 1.04752798e-02,
          3.62914614e-02, 5.59059791e-02, 2.21148320e-02,
          -1.02298725e-02, 2.72706393e-02, -7.15408649e-04,
          -5.26419235e-03, 1.35389261e-03, -8.45073815e-03,
          2.41765510e-02, 1.24543980e-02, 6.15128083e-03, 2.03580805e-03,
          5.06206937e-02, -1.08526284e-02, 2.99941916e-02,
          1.13778459e-02, 5.13684973e-02, 1.68371443e-02,
          -1.13798818e-02, -5.28960936e-02, -1.82825103e-02,
          3.38723708e-04, 6.88142562e-03, -1.43423742e-02,
          1.62051097e-02, 1.15198744e-02, -3.74712870e-02,
          -1.20947044e-02, 3.96369807e-02, 2.10587792e-02,
          -2.56424397e-02, -5.18812761e-02, -6.36846572e-02,
          -4.68452461e-03, -6.30292343e-03, -3.07039474e-03,
          -2.80329324e-02, 8.44097510e-03, -1.76299515e-03,
          -4.45445813e-02, -2.03949492e-02, 5.37155801e-03,
          -4.07544114e-02, 3.86475213e-02, -2.72173509e-02 ]
      - [ -1.21480236e-02, 2.28184965e-02, 1.76451001e-02,
          -1.08905816e-02, -1.31984819e-02, 9.57590248e-03,
          3.16839889e-02, 1.49589647e-02, 6.35180017e-03, 1.14738764e-02,
          7.13757146e-03, 9.06193815e-03, -1.04627456e-03,
          -1.49493348e-02, 3.37497029e-03, -4.60833637e-03,
          -1.36305112e-02, -1.62116885e-02, -2.64671911e-02,
          -1.36019215e-02, -2.30012331e-02, 1.47319417e-02,
          3.06461342e-02, -1.70838945e-02, -6.33379072e-03,
          1.37042003e-02, -9.14106146e-03, -2.34587844e-02,
          1.22466367e-02, -1.37385605e-02, 1.42848380e-02,
          -2.49555279e-02, 2.36513950e-02, 2.43610404e-02,
          2.46895421e-02, 7.46172108e-03, 5.61018661e-03,
          -5.92971407e-02, 1.36439810e-02, 3.73855904e-02,
          1.58402510e-02, 7.24634295e-03, -5.01013435e-02,
          1.67291649e-02, 3.78266466e-03, -6.77043572e-03,
          2.73867045e-02, -2.62540989e-02, -1.03810318e-02,
          -2.64199134e-02 ]
      - [ 1.42489152e-03, 4.63409908e-02, -8.47942941e-03,
          -5.03953397e-02, -6.14237599e-03, 2.44373698e-02,
          -9.41804517e-03, 2.52702329e-02, 1.63506493e-02,
          1.43190734e-02, 3.41741592e-02, 4.29982059e-02,
          -5.19257486e-02, -8.81243031e-03, -1.12344604e-02,
          -3.99480462e-02, -1.76075492e-02, -2.42496915e-02,
          -4.57343506e-03, 2.00888328e-02, -1.02202846e-02,
          3.86913447e-03, 3.36555974e-03, 3.64275165e-02, 5.07807173e-03,
          1.85210649e-02, 8.05015676e-03, 3.05227526e-02,
          -2.16659401e-02, 3.42588052e-02, -1.25151854e-02,
          -1.80870779e-02, -5.89292124e-03, 1.22633632e-02,
          4.22408283e-02, -4.71854620e-02, -4.57574204e-02,
          -4.39370200e-02, 2.48022582e-02, -1.37057272e-03,
          4.74755047e-03, -4.33250926e-02, -3.02731544e-02,
          1.25162881e-02, 2.15473883e-02, -3.28608453e-02,
          1.12279914e-02, 5.79414796e-03, 4.04536203e-02, 4.96997079e-03 ]
      - [ -4.06540558e-02, -1.72591489e-02, 2.85918340e-02,
          -9.45864432e-03, -9.24619287e-03, 1.78726856e-02,
          1.60892308e-02, -2.60607488e-02, 4.58704261e-03,
          3.54382247e-02, 5.39297201e-02, 6.11711433e-03, 1.91634353e-02,
          -1.77142434e-02, 5.11554144e-02, -6.05045026e-03,
          -1.16437189e-02, -9.26075131e-03, -2.95278020e-02,
          -1.80927524e-03, -1.65905263e-02, 3.10450327e-02,
          1.28441462e-02, 8.63896497e-03, -1.12906601e-02,
          1.63791664e-02, 2.19438132e-02, -2.54840050e-02,
          -1.86472926e-02, 7.59291137e-03, 8.77514016e-03,
          -6.09769449e-02, 2.58469265e-02, -9.10448935e-03,
          1.68068428e-02, -1.23443026e-02, 7.92231504e-03,
          -2.88164299e-02, 2.51946952e-02, -1.80362780e-02,
          1.24375997e-02, 2.28114277e-02, 2.36165300e-02, 6.15789136e-03,
          -1.14382822e-02, -2.49865521e-02, -2.58920807e-02,
          -5.90339629e-03, 1.10062920e-02, 2.16764919e-02 ]
      - [ -2.73997784e-02, 3.18934559e-03, 2.51458175e-02,
          8.72521196e-03, -1.42074758e-02, 4.18945262e-03,
          4.32673655e-03, 3.49935181e-02, 5.08487336e-02, 3.39693092e-02,
          1.14638647e-02, 2.12064832e-02, -2.90503856e-02,
          4.06057748e-04, 4.62188711e-03, -2.24499629e-04,
          -1.10344188e-02, -1.30590275e-02, 2.56137755e-02,
          2.48234849e-02, 3.22701931e-02, 1.55351022e-02,
          -2.34543881e-03, 2.91400333e-03, -2.70445971e-03,
          3.67410108e-03, 5.04549593e-03, 8.89714994e-03, 9.05670319e-03,
          1.66345052e-02, 1.72649398e-02, -1.35703329e-02,
          -9.85101610e-03, 4.84853573e-02, 2.37568724e-03,
          -1.76661592e-02, -7.22996285e-03, -3.49741653e-02,
          3.30935419e-02, -2.39161844e-03, -1.79000851e-02,
          3.89354466e-03, -2.31039505e-02, 3.96033116e-02,
          4.15732078e-02, -4.35406668e-03, 1.68779753e-02,
          1.02252681e-02, 1.88471109e-03, 4.62139538e-03 ]
      - [ -3.50303799e-02, 3.68096530e-02, 2.10125931e-02,
          -3.36074946e-03, 1.47026004e-02, 1.85666606e-02,
          1.87841896e-02, 2.27536373e-02, 1.90768503e-02, 1.64974462e-02,
          1.74681135e-02, 2.94726226e-03, -2.79037282e-02,
          5.80842886e-03, 2.88985856e-02, 2.53603468e-03, 1.81437805e-02,
          -1.81202721e-02, -4.69026119e-02, -2.99444310e-02,
          2.09097173e-02, 9.70630255e-03, 7.61087611e-03, 1.11379167e-02,
          1.26847159e-02, -3.43263932e-02, 3.50348912e-02,
          -5.46902744e-03, -2.22544242e-02, 2.28452124e-02,
          -2.08680751e-03, -2.69522960e-03, -1.24320667e-02,
          -2.36539776e-03, 1.92680713e-02, -6.63813902e-03,
          2.13142466e-02, -4.75965030e-02, 1.92627385e-02,
          1.16656441e-02, -3.09499744e-02, 2.73732515e-03,
          2.34799716e-03, 1.11305760e-02, 7.24570267e-03,
          -5.81905479e-03, 2.93506719e-02, 2.22069230e-02,
          1.75679922e-02, -2.57060025e-02 ]
      - [ 7.93514866e-03, 3.08689401e-02, 1.38773434e-02, 3.98554094e-02,
          3.51573713e-03, 3.71321440e-02, 3.87856625e-02,
          -8.91459454e-03, -4.56382195e-03, 4.88086455e-02,
          5.09683136e-03, 2.28359830e-02, -3.45797800e-02,
          8.90000071e-03, 1.44717740e-02, 6.44484442e-03, 9.63728875e-03,
          -3.47814411e-02, 9.90906963e-04, -9.59551428e-03,
          3.57908644e-02, 2.35715583e-02, 4.86997515e-02,
          -3.45968828e-02, 1.05369464e-02, 6.41471148e-03,
          -1.85404439e-03, -2.38198843e-02, -3.22929919e-02,
          5.82899936e-02, -2.10541971e-02, -3.24163400e-02,
          1.08677745e-02, -1.80433672e-02, 1.93070192e-02,
          -2.75326371e-02, 2.31761057e-02, -6.70163482e-02,
          3.51186953e-02, -2.48535741e-02, -3.19108926e-02,
          3.14424094e-03, -4.87312190e-02, 5.93831437e-03,
          8.82205926e-03, -8.21798050e-04, 3.15594040e-02,
          3.83491032e-02, -4.32576053e-03, 1.56187816e-02 ]
      - [ 6.66014925e-02, -2.03045122e-02, 3.13194133e-02,
          7.09654614e-02, -7.89943337e-03, 2.06582081e-02,
          5.49130440e-02, 2.37173401e-02, 2.64490508e-02,
          -1.33367544e-02, 7.10863844e-02, -4.05168086e-02,
          1.35196960e-02, -1.81112178e-02, 2.90779304e-02,
          -1.26134455e-02, 3.33082825e-02, 1.32904062e-02,
          -3.35120894e-02, 6.70239404e-02, 2.23200209e-02,
          -7.39038503e-03, 8.03408474e-02, 3.60239297e-02,
          6.92023244e-03, 3.58904749e-02, 5.37038632e-02, 4.41988446e-02,
          3.39242443e-02, 9.62972641e-03, -3.88968620e-03,
          -3.45981531e-02, 6.23240415e-03, 3.26331183e-02,
          1.87805127e-02, -3.53593268e-02, 3.04899830e-02,
          -7.31917173e-02, 3.43597494e-02, 1.59835792e-03,
          -4.72984277e-02, 1.65326241e-02, 9.60428454e-03,
          -1.84933227e-02, 7.56260008e-02, -1.48456851e-02,
          3.64016145e-02, 3.89408022e-02, -1.28369192e-02,
          -7.99543876e-03 ]
      - [ -1.75388493e-02, 5.36914356e-03, 1.67146139e-02,
          -4.05535549e-02, 1.11458935e-01, 3.18110101e-02,
          -1.22639630e-02, 4.50810120e-02, 3.59614976e-02,
          1.56810898e-02, -3.37786525e-02, 9.95435566e-03,
          -4.57928851e-02, -4.41883598e-03, 1.76960323e-02,
          8.21487233e-03, 2.18915213e-02, -2.48229112e-02,
          3.90621535e-02, -4.75547137e-03, 2.61735916e-02,
          -5.77713083e-03, 1.75102782e-02, 2.77902465e-04,
          3.05274446e-02, -4.68317904e-02, 7.12161809e-02,
          2.39807777e-02, -2.64127068e-02, -2.15587988e-02,
          1.35986297e-03, -3.38491127e-02, -4.99045178e-02,
          2.93899197e-02, 4.29950431e-02, -6.14673714e-04,
          2.65899114e-04, -7.48230070e-02, -1.83753427e-02,
          1.74025632e-02, -5.21351658e-02, 2.37913951e-02,
          -1.86851379e-02, 1.33208865e-02, 2.85525471e-02,
          -6.32403865e-02, 1.49703128e-02, -7.62136839e-03,
          2.45827213e-02, -1.17205419e-02 ]
      - [ -5.09766676e-02, 9.87146050e-03, 3.80415581e-02,
          8.28882977e-02, -2.43648794e-03, 8.99740458e-02,
          1.05121188e-01, -5.12567069e-03, 4.97903451e-02,
          -6.37149587e-02, 1.40858674e-02, -5.83785251e-02,
          -2.64481772e-02, -7.06924964e-03, 8.45497623e-02,
          -4.46195528e-02, 8.57098922e-02, -4.36794832e-02,
          -1.82458491e-04, -3.46746147e-02, -3.66608636e-03,
          -2.19788197e-02, -9.24469717e-03, 2.38034874e-02,
          4.69650477e-02, 1.17385881e-02, 1.17125764e-01, 6.39354736e-02,
          -6.71271756e-02, 2.91498266e-02, -4.13457230e-02,
          -1.12440020e-01, -3.12814377e-02, 3.39245349e-02,
          1.75950341e-02, -6.18051477e-02, 1.22768814e-02,
          -1.70044050e-01, 5.20462245e-02, -2.13763025e-02,
          1.52325751e-02, -1.72780305e-02, -2.24945564e-02,
          2.77430657e-02, 1.60314199e-02, -8.96405801e-02,
          4.61173207e-02, -3.06495316e-02, -1.39231626e-02,
          -5.78142609e-03 ]
      - [ -3.53295282e-02, 7.43705500e-03, 3.33279222e-02,
          -2.67296750e-02, 1.28894974e-03, 1.71380918e-02,
          2.28274427e-02, -2.41917279e-02, 1.41602084e-02,
          -4.40755347e-03, 2.13540308e-02, 5.66204526e-02,
          1.82617223e-03, 7.23942649e-03, 2.64887931e-03, 6.42928621e-03,
          1.04377065e-02, -3.81450057e-02, 2.10966934e-02,
          -3.42762172e-02, 1.09879794e-02, -5.65510523e-03,
          1.30639542e-02, 5.44306375e-02, -2.29498395e-03,
          2.17338372e-02, -4.88830954e-02, 4.36134590e-03,
          1.97746921e-02, -1.22843953e-02, -1.10038638e-03,
          1.29923746e-02, -2.53811702e-02, -5.25142625e-03,
          2.28258744e-02, -2.18013972e-02, 2.19592769e-02,
          5.55633195e-03, 1.80253871e-02, 2.47913823e-02, 4.41518091e-02,
          4.81439941e-02, 2.41861641e-02, 4.16856781e-02,
          -3.65975052e-02, 4.19639237e-02, 7.38117332e-03,
          3.54347825e-02, -2.74622738e-02, 1.80868544e-02 ]
      - [ 1.24105029e-02, 1.27576347e-02, -7.10932771e-03,
          8.61953292e-03, 8.25621653e-03, 2.45337244e-02, 1.19268997e-02,
          -3.20778005e-02, 1.22347334e-02, -3.71868559e-03,
          2.08467524e-03, 8.57368670e-03, -1.76556148e-02,
          1.98021233e-02, 2.14859210e-02, -8.48551645e-05,
          -6.61692023e-03, 0., -1.87357366e-02, 2.38025491e-03,
          1.38597591e-02, 3.64713036e-02, -2.49246461e-03,
          -4.45429381e-04, -2.16639191e-02, -8.02604202e-03,
          -4.47216555e-02, -1.95869245e-02, 1.87070633e-03,
          1.23450276e-03, 2.14878824e-02, 4.61397134e-03,
          -8.63732770e-03, -1.56445205e-02, -7.75260339e-03,
          -1.70297902e-02, -4.36502211e-02, 1.31334523e-02,
          8.08345678e-04, 2.11933833e-02, 2.11812705e-02, 1.00327088e-02,
          1.97910182e-02, 8.81201960e-03, -5.49716987e-02,
          1.99423842e-02, 9.37716849e-03, -3.08058783e-02,
          4.47797030e-03, -1.23130083e-02 ]
      - [ -1.17399534e-02, 6.41390728e-03, 4.06877557e-03,
          -4.38847812e-03, -9.25947260e-03, 2.46645138e-02,
          1.31263733e-02, -6.95080217e-03, 7.50139123e-03,
          2.12311815e-03, 1.34213306e-02, 1.01680160e-02,
          -7.45227886e-03, -7.25843757e-03, -8.03402718e-03,
          -1.60296187e-02, -3.84696340e-03, -3.53741907e-02,
          -2.09147632e-02, -1.66793633e-02, -1.42639950e-02,
          1.30382329e-02, 1.93367507e-02, -4.50183265e-03,
          -1.08406469e-02, 2.04861704e-02, -2.79415958e-02,
          -2.82904208e-02, 2.23286506e-02, 7.64444610e-03,
          4.97931894e-03, 1.01542184e-02, 1.19913947e-02,
          -8.02693423e-03, 1.80120412e-02, -2.27249009e-04,
          -5.46957817e-05, 1.91035063e-03, -1.35277223e-03,
          3.91954556e-02, 3.25655602e-02, 1.11696105e-02,
          -2.43606493e-02, 1.33432727e-02, -3.69431153e-02,
          6.36965362e-03, 1.49851181e-02, -2.52643228e-02,
          -1.61998030e-02, -1.16462857e-02 ]
      - [ -2.36009471e-02, 2.08786745e-02, -2.68944651e-02,
          -3.13444138e-02, -2.81926361e-03, 3.85520719e-02,
          -1.32382251e-02, -1.55684184e-02, 1.12207495e-02,
          6.77436357e-03, 1.45022031e-02, 2.41654143e-02,
          -3.42094861e-02, -1.26397246e-02, -5.65692317e-03,
          -2.38799192e-02, 7.47545343e-03, -1.60694309e-02,
          -3.55516337e-02, 1.25750899e-02, 3.82754166e-04,
          9.71739646e-03, -4.24335338e-03, 3.41966972e-02,
          5.27425017e-03, 1.76387895e-02, -1.62890889e-02,
          -8.24764557e-03, 4.11527557e-03, 3.36273834e-02,
          2.75648665e-03, -9.47261974e-03, -1.84193756e-02,
          -1.79557335e-02, 3.53566483e-02, -1.59094203e-02,
          -2.62936335e-02, 2.22661570e-02, 2.07449077e-03,
          8.66490882e-03, 1.65157635e-02, -1.07078068e-02,
          -6.57575857e-03, 2.72323284e-02, -4.28485237e-02,
          -1.24490587e-02, -2.21744226e-03, 4.08754498e-03,
          1.01154381e-02, -4.10012435e-03 ]
      - [ -4.51373942e-02, -2.06610765e-02, 9.96273383e-03,
          -1.07123107e-02, -2.42325524e-03, 8.47622566e-03,
          2.48230193e-02, -1.79678742e-02, 3.63467657e-03,
          1.35489255e-02, 1.91092100e-02, 1.41411079e-02, 1.03139482e-03,
          -2.68286606e-03, 2.17912104e-02, -1.19559420e-03,
          1.47008512e-03, -2.48533227e-02, -1.77909657e-02,
          -6.55440745e-05, 7.13163754e-04, 9.44802258e-03,
          1.91753805e-02, 1.23782130e-02, -4.10227478e-03,
          6.08046772e-03, -1.56784952e-02, -2.32450906e-02,
          -2.09814264e-03, -1.23734970e-03, 1.15593057e-02,
          -1.53869921e-02, -2.19167839e-03, -2.10372210e-02,
          1.28344335e-02, -9.68749728e-03, 7.54204206e-03,
          2.48087663e-02, 2.06052773e-02, -5.91158075e-03,
          3.00785638e-02, 1.37678953e-02, 1.92053318e-02, 1.06856609e-02,
          -3.69650871e-02, 5.13915578e-03, -2.64564138e-02,
          -6.85538724e-03, 2.92335334e-03, 1.30630108e-02 ]
      - [ -5.07107526e-02, -1.62446331e-02, 2.90856771e-02,
          5.20570343e-03, 5.98152983e-04, 3.10722515e-02, 4.80531901e-03,
          1.17015494e-02, 4.12970856e-02, 2.61354335e-02, 1.27442740e-02,
          2.78788675e-02, -3.25037986e-02, 4.25505731e-03,
          2.32827831e-02, 1.23930797e-02, 6.69573608e-04,
          -3.71083729e-02, 1.80434130e-04, 1.62851997e-02,
          3.39075960e-02, 4.92482726e-03, -2.49040499e-03,
          4.91677457e-03, -5.79671841e-03, 5.45414572e-04,
          -2.74776220e-02, -9.37580131e-03, 3.44953425e-02,
          2.68028919e-02, 2.76238937e-02, 2.15952545e-02,
          -1.34043787e-02, 4.12002148e-04, -1.02407159e-02,
          -1.72467623e-02, -1.61731970e-02, 1.02748740e-02,
          1.61854383e-02, 9.80283506e-03, 7.09142070e-03, 1.14851017e-02,
          -1.42273372e-02, 3.59191485e-02, -8.44400190e-03,
          -1.73654016e-02, 1.51757365e-02, 1.70231648e-02,
          -1.29576968e-02, 4.94733406e-03 ]
      - [ -4.50509861e-02, 2.28595547e-02, 4.50235559e-03,
          -1.14709511e-02, 1.21785151e-02, 1.54795088e-02,
          1.88763812e-02, 9.94740799e-03, 1.31857060e-02, 4.79692267e-03,
          7.61469267e-03, 6.95182849e-03, -2.06629355e-02,
          7.65910465e-03, 2.89390888e-02, -4.44849301e-03,
          1.90098733e-02, -2.96044182e-02, -3.34498510e-02,
          -3.79555598e-02, 6.70795841e-03, 8.84077884e-03,
          8.81943479e-03, 1.59436222e-02, 4.54377709e-03,
          -2.88819037e-02, -1.08455131e-02, -4.16091614e-04,
          7.63973687e-03, 3.81742641e-02, 1.16785839e-02, 1.72662064e-02,
          -2.04039216e-02, -1.56706553e-02, 1.69799291e-02,
          -1.42445005e-02, 6.56452728e-03, 9.42515302e-03,
          2.58468054e-02, 1.77007746e-02, -1.35491497e-03,
          2.64494754e-02, 7.95246102e-03, -5.47731481e-03,
          -3.01646665e-02, -5.55926049e-03, 1.73303857e-02,
          1.03810877e-02, 9.97059233e-03, -1.98937263e-02 ]
      - [ -1.48302829e-02, 1.71936285e-02, -1.31273279e-02,
          7.55514484e-03, 9.08128265e-03, 3.26610580e-02, 2.32761223e-02,
          -2.19811164e-02, -2.38212524e-03, 1.11024575e-02,
          -1.22958329e-03, 1.60406046e-02, -1.88060440e-02,
          5.05894469e-03, 1.29232779e-02, 3.99364950e-03, 3.09365382e-03,
          -3.64327356e-02, -1.41013963e-02, -2.24756412e-02,
          5.48825692e-03, 7.57925073e-03, 3.01888045e-02,
          -1.40171247e-02, -1.51914963e-02, 2.76347296e-03,
          -6.64353669e-02, -1.74188651e-02, -1.24345915e-02,
          2.21501272e-02, 1.49837965e-02, 4.17452771e-04,
          -3.03085777e-03, -2.79156640e-02, -5.04629454e-03,
          -3.62757593e-02, -1.99166150e-03, 2.33080331e-02,
          4.64554038e-03, -2.59793433e-03, 8.13194085e-03,
          1.41746271e-02, -3.27983149e-03, 1.09185753e-02,
          -3.40503454e-02, 1.97353773e-02, 1.66572183e-02,
          9.04461928e-03, -1.05147697e-02, 4.49648639e-03 ]
      - [ 2.90742926e-02, -7.46479928e-02, 1.21071301e-02,
          6.02919310e-02, 1.67610608e-02, 2.23791562e-02, 5.29221930e-02,
          -4.56795059e-02, 2.11239513e-02, -3.11910771e-02,
          5.53017110e-02, 9.07548424e-03, -1.46637112e-02,
          -2.08097231e-02, -1.29180457e-02, -9.63807944e-03,
          3.25539745e-02, -6.07222691e-02, -5.52517921e-02,
          -1.55056603e-02, 4.73648869e-03, 2.75436137e-03,
          5.13594709e-02, -6.16780994e-03, -4.19817083e-02,
          1.82916969e-02, -8.67466554e-02, -1.60886981e-02,
          4.90007065e-02, 1.51190264e-02, 3.67067344e-02, 1.12406807e-02,
          -3.09020723e-03, -4.96062078e-03, -1.10521233e-02,
          -2.12243479e-02, -9.38079413e-03, 5.49879298e-02,
          2.11846847e-02, 6.18757978e-02, 6.19587908e-03, 2.95492429e-02,
          2.69626454e-02, 2.18656100e-02, -4.38343920e-02,
          -3.76065522e-02, 3.66653055e-02, -5.68857091e-03,
          -3.44408453e-02, -8.68799537e-03 ]
      - [ -4.76934388e-02, -1.49020748e-02, -6.49918430e-03,
          -1.44602247e-02, 4.01915982e-02, 2.61914637e-02,
          -1.50966486e-02, -1.22614112e-02, 2.53437888e-02,
          -8.94351769e-03, -1.94811132e-02, 5.10118809e-03,
          -4.04778533e-02, -8.60268436e-03, 2.07943972e-02,
          -3.86933610e-03, 1.09440740e-03, -4.58483994e-02,
          8.42865277e-03, -1.67158898e-02, 5.31065883e-03,
          -1.26164046e-03, 2.47445088e-02, 7.42307166e-03,
          -5.71807707e-03, -1.41041987e-02, -3.98716219e-02,
          3.97443102e-04, 3.29143219e-02, -7.02637155e-03,
          5.54095535e-03, 2.77433153e-02, -2.66699884e-02,
          -4.19621430e-02, -4.62288270e-03, -1.63633693e-02,
          -7.98355509e-03, 3.94540131e-02, -2.85694003e-02,
          5.28777055e-02, 3.10033783e-02, 4.71786782e-02, 1.49983019e-02,
          1.04525499e-02, -6.04351014e-02, -7.20407441e-03,
          -3.63490358e-03, -4.40392690e-03, -1.88927996e-04,
          -1.99981164e-02 ]
      - [ -3.41429226e-02, -5.43549145e-03, -1.48665644e-02,
          -6.24050200e-03, 1.04388986e-02, 2.17053834e-02,
          3.47832106e-02, -4.49567772e-02, -7.79877519e-06,
          -1.05412332e-02, 3.46491137e-03, 2.61333073e-03,
          -1.28018782e-02, -1.79727133e-02, 5.11362888e-02,
          -2.11834125e-02, 1.40244011e-02, -6.98980764e-02,
          -2.48071756e-02, -1.82539746e-02, -2.99967767e-04,
          9.81012359e-03, -4.85664001e-03, -2.61701038e-03,
          -1.55476984e-02, -2.05822550e-02, -3.18417102e-02,
          -1.58566255e-02, 1.46847172e-02, 2.70515494e-02,
          3.56059684e-03, 8.12490657e-03, -2.64064278e-02,
          -4.09328565e-02, 2.53499486e-02, -3.52644883e-02,
          9.01216699e-04, 4.44270000e-02, 3.14531587e-02, 4.13555056e-02,
          6.30115271e-02, 3.03176492e-02, 2.51945779e-02, 1.91305894e-02,
          -7.40005746e-02, -2.67057717e-02, -2.15983782e-02,
          -8.96235276e-03, -2.31352858e-02, -6.15090784e-03 ]
      - [ 3.53772193e-02, 1.41974760e-03, -1.26606757e-02,
          2.24391874e-02, 1.81553457e-02, 1.77666210e-02,
          -3.43289156e-03, -2.75448407e-03, 2.89764926e-02,
          -7.98397872e-04, -1.95621941e-02, -2.95152254e-02,
          -1.20275971e-02, 8.35749134e-03, -7.46070175e-03,
          1.21506313e-02, -1.55369593e-02, 2.76418924e-02,
          -1.27170095e-02, -1.81856740e-03, 1.97169129e-02,
          2.44909227e-02, -7.86254369e-03, -2.54466925e-02,
          -1.96310487e-02, -2.36737244e-02, 9.66288440e-04,
          -2.93391887e-02, -8.60416051e-03, 3.87777714e-03,
          1.61430072e-02, 4.10373090e-03, -1.69092393e-03,
          -1.46610532e-02, -2.15325635e-02, -1.36687635e-02,
          -5.72663434e-02, -5.64942090e-03, -1.58328749e-02,
          6.54803030e-03, 6.08964358e-03, -3.10495291e-02,
          3.23631316e-02, -2.26857830e-02, -2.37721708e-02,
          -1.18247001e-02, -3.08797811e-03, -2.76509393e-02,
          3.01868841e-02, -2.87925396e-02 ]
      - [ -1.24368828e-03, 1.65273286e-02, -1.38494447e-02,
          2.07763189e-03, -1.77405272e-02, 8.09304044e-03,
          2.74176039e-02, 2.32982859e-02, 2.38092877e-02, 4.59977007e-03,
          -1.13477381e-02, -3.09551582e-02, -3.31182685e-03,
          -2.20117476e-02, -3.21625248e-02, -2.06506085e-02,
          -2.45402288e-02, -1.22987861e-02, -1.65589638e-02,
          -1.21557564e-02, -1.44661255e-02, 2.02777237e-02,
          -2.65898067e-03, -5.20480238e-02, 1.53304944e-02,
          2.14511948e-03, -6.91462029e-03, -4.86941934e-02,
          3.46661210e-02, -2.67248228e-03, 2.83042863e-02,
          -7.82924145e-03, 3.00399009e-02, 9.97536816e-03,
          8.62986315e-03, 1.97049566e-02, -2.56967708e-03,
          -1.70983635e-02, 3.25236865e-03, 3.34851816e-02,
          1.93291698e-02, -2.18784027e-02, -4.69342247e-02,
          -1.25257662e-02, -3.97104025e-02, -1.06335804e-03,
          1.12106130e-02, -1.98658295e-02, 1.08046858e-02,
          -2.56881136e-02 ]
      - [ -1.21596013e-03, 3.69970202e-02, -3.79670225e-02,
          -3.69198732e-02, -3.16038840e-02, 9.01389122e-03,
          -2.25694701e-02, 3.27535719e-02, 8.91655590e-03,
          1.15870200e-02, 2.03197170e-02, -1.31130125e-02,
          -5.12472540e-02, -1.57558154e-02, -1.53261879e-02,
          -3.75818126e-02, 3.19277309e-03, -1.17762350e-02,
          -3.61289792e-02, 2.86565814e-02, -1.84336379e-02,
          -2.85721384e-03, -2.82958709e-02, 2.66303048e-02,
          -3.18654790e-03, -6.63205935e-03, 1.51671236e-02,
          -2.82736849e-02, 3.60900536e-03, 1.97316334e-02,
          9.30383522e-03, -1.16405133e-02, -2.87220348e-03,
          -8.58425349e-03, 1.76425502e-02, -2.71339715e-02,
          -3.35886441e-02, 3.50164510e-02, -3.70345637e-03,
          -2.37837937e-02, 7.39005720e-03, -4.77176867e-02,
          -1.16070732e-02, -3.09487283e-02, -4.42719236e-02,
          -2.35821921e-02, 7.76973320e-03, -9.67160147e-03,
          4.77581061e-02, -5.63192321e-03 ]
      - [ -4.56198454e-02, -3.02981194e-02, -2.87770224e-03,
          9.13685840e-03, -1.52722634e-02, 6.90216245e-03,
          3.13994624e-02, 4.33771079e-03, -5.18715056e-03,
          9.05476604e-03, 3.36299837e-02, -1.63981263e-02,
          2.79359147e-03, -2.80234404e-02, 4.34178002e-02,
          1.30665908e-02, -6.56262320e-03, 1.77225086e-03,
          -3.58123481e-02, 5.12080453e-03, -2.01547127e-02,
          6.21922547e-03, 3.22883995e-03, -1.22547708e-03,
          1.28492285e-02, -4.87859739e-04, 1.43283587e-02,
          -3.49429846e-02, -7.77885725e-04, 2.51397234e-03,
          2.56218277e-02, -4.94421050e-02, 2.28896178e-02,
          -2.75709797e-02, 7.40738958e-03, 6.97442656e-03,
          6.16937410e-04, 1.00047477e-02, 2.44169943e-02,
          -1.89537909e-02, 3.91699672e-02, 5.76472096e-03,
          5.32629751e-02, -1.59435142e-02, -2.28056759e-02,
          -1.79967862e-02, -3.09027061e-02, -2.61026826e-02,
          3.60698439e-02, -6.63338788e-03 ]
      - [ -1.63418669e-02, -2.30833720e-02, 1.17328539e-02,
          2.64632311e-02, -3.92911443e-03, 3.06602027e-02,
          -3.16411769e-03, 4.65563498e-02, 6.49564788e-02,
          3.51310968e-02, 9.69851762e-03, -1.52379097e-02,
          -2.63721161e-02, -2.47145724e-02, 5.02163433e-02,
          2.52245963e-02, -3.16431597e-02, -4.42994349e-02,
          -6.43082475e-03, 4.20877822e-02, 4.08656485e-02,
          2.04042122e-02, -2.04020198e-02, -4.21761461e-02,
          -2.65772380e-02, -1.27359247e-02, -7.10678147e-03,
          -5.66668203e-03, 2.58155204e-02, 4.92617339e-02,
          4.44718488e-02, 3.33102420e-02, 3.04322666e-03, 5.16946055e-02,
          -1.29643446e-02, -2.77013499e-02, -1.82755869e-02,
          1.37393188e-03, 2.01385245e-02, 9.97658260e-03, 3.17980163e-02,
          -3.24967876e-02, -1.04042841e-02, 1.99330412e-02,
          1.99829470e-02, -2.88538653e-02, 2.05519274e-02,
          -8.35607667e-03, 5.00452891e-03, -2.59960419e-04 ]
      - [ -3.51502933e-02, 2.54552923e-02, -8.27184878e-03,
          1.83209255e-02, 1.25858709e-02, 1.39799407e-02, 8.43731780e-03,
          3.04846689e-02, 4.90004523e-03, 1.14789475e-02,
          -2.06619292e-03, -3.97087485e-02, -1.72854997e-02,
          6.55895192e-03, 3.31502892e-02, 1.57881118e-02, 2.88127474e-02,
          -8.76580831e-03, -6.14667274e-02, -2.07147487e-02,
          2.33590530e-04, 3.17289382e-02, -3.58087732e-03,
          2.18780347e-04, 1.27535108e-02, -5.87535314e-02,
          2.55400240e-02, -3.01144179e-02, 1.41498272e-03,
          2.42995117e-02, 1.44870812e-02, 2.36836374e-02,
          -1.60712916e-02, -6.07222272e-03, 6.80460827e-04,
          3.65035725e-04, -2.56488536e-04, 1.37408646e-02,
          8.91741179e-03, -9.47163627e-03, -1.96487438e-02,
          -1.69193279e-02, 8.49535875e-03, -2.28309538e-02,
          -1.92339867e-02, -9.20342840e-03, 1.40481684e-02,
          -7.48553895e-04, 2.83263642e-02, -4.61126827e-02 ]
      - [ -1.52391512e-02, 2.62643378e-02, -2.15888321e-02,
          5.11833914e-02, 1.91863030e-02, 2.84212232e-02, 3.04095037e-02,
          -4.55910619e-03, -5.56628732e-03, 1.26403132e-02,
          -1.80119481e-02, -1.56750195e-02, -8.72787740e-03,
          -2.44494551e-03, -6.36327127e-03, 4.07497101e-02,
          1.71443913e-02, -5.12488000e-02, -4.53409962e-02,
          1.20274723e-02, 5.33489026e-02, -1.09291635e-02,
          3.17387916e-02, -6.50983006e-02, 1.11521408e-02,
          -4.73028794e-02, -5.94174750e-02, -3.48194353e-02,
          -3.20343822e-02, 7.53402989e-03, -1.14450017e-02,
          -5.91419078e-03, -5.61267976e-03, -7.57717416e-02,
          -3.31617668e-02, -2.93326452e-02, 2.38518901e-02,
          3.79056018e-03, 1.18766222e-02, 1.35388514e-02,
          -1.13999359e-02, -4.01885770e-02, -2.56565642e-02,
          -1.74581036e-02, -4.98978905e-02, -6.55462500e-03,
          6.44523352e-02, -2.73331720e-02, 1.38572976e-02,
          8.25537660e-04 ]
      - [ 7.11832345e-02, -5.89646026e-02, -3.14749181e-02,
          5.51292710e-02, 2.61509065e-02, -2.88622119e-02,
          -1.02122594e-02, 2.52422914e-02, 3.70224863e-02,
          -2.61217020e-02, 3.67073007e-02, -8.95941481e-02,
          -1.86813138e-02, -2.22609304e-02, 1.49373766e-02,
          -9.07586236e-03, 7.21813599e-03, 9.18408111e-03,
          -4.38484363e-02, 2.55001150e-03, -4.61925939e-03,
          3.44502367e-02, -5.63778449e-05, -2.69460231e-02,
          1.60088073e-02, -4.45579253e-02, 8.99628457e-03,
          -1.69941189e-03, 2.84701772e-02, 9.73646343e-03,
          2.77404115e-02, 3.99771370e-02, 3.05143576e-02, 3.00323665e-02,
          -8.84350203e-03, 2.04819404e-02, -3.95190865e-02,
          -3.18974862e-03, 2.45789234e-02, 1.22421263e-02,
          -2.01317463e-02, -6.06300160e-02, 2.54578255e-02,
          -1.95277836e-02, 7.76316039e-03, -4.05831076e-02,
          5.89175103e-03, -1.85899269e-02, -2.07453240e-02,
          -1.89581122e-02 ]
      - [ -1.38181187e-02, -1.66087244e-02, -2.42981929e-02,
          1.33158742e-02, 6.33889586e-02, 1.51463682e-02,
          -6.93472251e-02, 4.71768416e-02, 3.99777815e-02,
          -2.32619122e-02, -6.80919811e-02, -8.44237879e-02,
          -2.23259870e-02, -1.51208192e-02, 7.26052187e-03,
          4.57418180e-04, 6.03304803e-03, -1.78854186e-02,
          8.32803547e-03, -1.84104890e-02, 5.01420954e-03,
          -2.76222097e-04, -2.02909880e-03, -6.98043108e-02,
          -1.63372862e-03, -5.97356968e-02, 2.59157214e-02,
          -1.13523398e-02, -1.71204489e-02, -2.06906684e-02,
          1.48834530e-02, 1.25197060e-02, -2.45146733e-02,
          -3.25154364e-02, 1.35056498e-02, 2.49320809e-02,
          1.55077409e-03, 2.65713818e-02, -3.57853472e-02,
          2.40043085e-02, 1.05592574e-03, -5.51772164e-03,
          -8.63236084e-04, -3.89428660e-02, -7.22372392e-03,
          -3.29219736e-02, 9.58144478e-03, -1.01842321e-02,
          4.98522185e-02, 1.78716227e-03 ]
      - [ -3.98907773e-02, -2.25318540e-02, -4.19606678e-02,
          5.66797443e-02, 1.91300884e-02, -9.63995233e-03,
          -2.19354462e-02, 2.72815023e-02, 1.03646722e-02,
          -1.68329244e-03, -3.02981846e-02, -1.13240436e-01,
          4.91920486e-02, -3.46388891e-02, 1.73656642e-02,
          -4.82335128e-02, 2.13532746e-02, -8.99759680e-03,
          -3.57791409e-02, -1.59869175e-02, 2.40903087e-02,
          -1.64586585e-02, 7.90822494e-04, -2.61984132e-02,
          3.53968441e-02, -9.89595354e-02, 5.15282750e-02,
          -3.04558724e-02, -4.21473123e-02, -6.82588667e-03,
          5.87419383e-02, -7.36556649e-02, -3.06312814e-02,
          -3.57473381e-02, -1.02557670e-02, -1.71570759e-02,
          7.04516657e-03, 2.83912234e-02, 7.31749013e-02,
          -7.13291988e-02, 4.25499380e-02, -5.30423857e-02,
          8.54335055e-02, -3.62914428e-02, -9.88849327e-02,
          -6.02693036e-02, 3.11934203e-03, -7.60772079e-02,
          2.39792205e-02, -5.39908037e-02 ]
      - [ -2.50220224e-02, 1.58851761e-02, 1.02141295e-02,
          -1.18614715e-02, -3.87318768e-02, -1.44667029e-02,
          1.54105769e-02, 2.49900781e-02, -3.72249563e-03,
          4.50679427e-03, 1.26085011e-02, 5.66875888e-03, 3.98300542e-03,
          -1.34997247e-02, -1.16562201e-02, -1.49038387e-02,
          -1.16787786e-02, -4.10738364e-02, -1.72558445e-02,
          -1.24979094e-02, -3.22072431e-02, -1.70289222e-02,
          7.67915556e-03, -8.80585797e-03, -7.43673765e-04,
          2.30713766e-02, -1.46652879e-02, 7.58811878e-03,
          2.52831932e-02, -2.26825140e-02, 5.06242830e-03,
          1.76049164e-03, 2.45453641e-02, 5.10556763e-03, 2.25405656e-02,
          2.05768403e-02, 3.19406688e-02, -1.12135634e-02,
          2.24216077e-02, 2.42654141e-02, 7.41506135e-03, 1.57096591e-02,
          -3.61875445e-02, 1.25626288e-02, 2.09728605e-03,
          -4.96098655e-04, 2.30041966e-02, -2.32129940e-03,
          -1.31162107e-02, -4.77738067e-04 ]
      - [ -2.97613051e-02, 1.39301643e-02, -1.98347960e-02,
          -3.08338013e-02, -4.05973941e-02, -4.31740051e-03,
          -1.32314581e-02, 1.88661646e-02, -1.40275089e-02,
          2.42034133e-04, 2.58982126e-02, 2.70376354e-02,
          -2.73398254e-02, -1.46172987e-02, -1.40698999e-02,
          -1.99654009e-02, 7.29635404e-03, -3.25895473e-02,
          -1.11777778e-03, 1.82646904e-02, -3.05171218e-03,
          -3.02701611e-02, -3.89418146e-03, 2.35891752e-02,
          1.11094099e-02, 2.53698435e-02, 1.07739987e-02,
          -8.74674821e-04, 1.08794849e-02, 2.84397937e-02,
          -1.24809928e-02, -1.54970437e-02, 5.72505360e-03,
          -1.46975252e-03, 3.08843907e-02, -8.50892346e-03,
          2.08907891e-02, 1.11189997e-02, 2.96772388e-03, 5.21743111e-03,
          -9.53135174e-03, -1.01703489e-02, -2.64619347e-02,
          1.03679416e-03, 1.56568196e-02, 6.69899397e-03, 3.16378381e-03,
          2.97811292e-02, 4.07771673e-03, 2.83605307e-02 ]
      - [ -4.14630882e-02, -2.11516228e-02, 1.44608095e-02,
          -1.35087464e-02, -1.23998905e-02, -1.88605748e-02,
          2.98090372e-03, -1.96642848e-03, -1.78270731e-02,
          9.26326308e-03, 2.67938543e-02, 4.25974419e-03, 1.04626641e-02,
          -2.55882647e-02, 1.59759615e-02, -8.94947618e-04,
          -7.46944570e-04, -2.69160420e-02, -6.40872493e-03,
          -6.66668685e-03, -1.53458361e-02, -1.58839263e-02,
          1.56712922e-04, 9.52535402e-03, 1.94447134e-02, 2.44170688e-02,
          1.11600831e-02, -3.89189506e-03, -1.05972961e-02,
          -8.53103586e-04, -1.14367930e-02, -3.08831576e-02,
          1.40125137e-02, -1.44875860e-02, 1.15097659e-02,
          -1.13852350e-02, 4.09883931e-02, 1.34833045e-02,
          2.81495340e-02, 1.31491700e-03, 3.72143625e-03, 1.56256631e-02,
          1.24291412e-03, 1.49340257e-02, 8.13710131e-03,
          -4.74898843e-03, -2.88658477e-02, 2.77444199e-02,
          -4.08202270e-03, 1.96989384e-02 ]
      - [ -4.46258858e-02, -4.65885317e-03, 1.79187953e-02,
          4.95328475e-03, -1.68656372e-02, -1.53539348e-02,
          -7.86010083e-03, 3.89886349e-02, 1.83038432e-02,
          2.28730254e-02, 1.90853663e-02, 1.81086957e-02,
          -2.44665481e-02, -6.03011856e-03, 7.52751576e-03,
          2.26011826e-03, 5.15148416e-03, -3.38071547e-02,
          1.21957622e-02, 1.76886264e-02, 1.27319572e-02,
          -1.83178131e-02, -1.05504505e-02, 3.02869873e-03,
          -3.71927349e-03, 1.86612792e-02, 2.07514614e-02,
          1.30748106e-02, 1.30984746e-02, 2.27011573e-02,
          -1.27143005e-03, 5.36106946e-03, 1.74915604e-02,
          1.82911027e-02, 3.26892547e-03, -4.53514978e-03,
          2.07726825e-02, 7.33386120e-03, 1.49345035e-02,
          -6.10402785e-03, -1.23972790e-02, 3.10085888e-04,
          -1.49697280e-02, 3.08423433e-02, 3.62872705e-02,
          -1.07168509e-02, 8.82183574e-03, 1.48822553e-02,
          -1.54995564e-02, 1.64797381e-02 ]
      - [ -4.59266193e-02, 9.84598976e-03, 4.26784437e-03,
          -2.57076044e-03, -1.23672551e-02, -3.15477536e-03,
          9.34665650e-03, 2.97133010e-02, -4.62593837e-03,
          4.08489723e-03, 1.83982421e-02, -1.17636845e-03,
          -1.21298339e-02, 1.13065145e-03, 1.50124589e-02,
          1.10299820e-02, 1.88243315e-02, -3.07596251e-02,
          -2.15543043e-02, -1.77309997e-02, -1.02680188e-03,
          -1.82926748e-02, -5.13244281e-03, 1.96092315e-02,
          2.69814990e-02, -1.36798853e-02, 1.93074774e-02,
          2.01253244e-03, -1.00983651e-02, 2.66506635e-02,
          -4.48733149e-03, -4.71669575e-03, -3.36110801e-03,
          -1.93699747e-02, 2.02551261e-02, 3.00918915e-03,
          5.15725464e-02, 9.43256542e-03, 1.03663309e-02, 2.95014447e-03,
          -2.13749390e-02, 1.09877959e-02, -1.18881389e-02,
          1.64659310e-03, 2.16927920e-02, 5.48696937e-03, 1.35940760e-02,
          3.29576097e-02, 1.51569326e-03, -3.18630738e-03 ]
      - [ -3.24058421e-02, -3.26280203e-03, -1.37450104e-03,
          2.59605199e-02, -2.39698328e-02, 7.95906999e-06,
          1.22114252e-02, -5.25612209e-04, -3.82953882e-02,
          1.44602163e-02, 1.37443049e-02, 1.44437617e-02,
          -1.84497808e-03, -1.74550898e-02, -3.60726914e-03,
          -8.14229716e-05, 1.47081353e-02, -4.37059626e-02,
          -9.44749825e-03, -1.79807227e-02, 8.96983035e-03,
          -4.03145403e-02, 2.97479089e-02, -7.03486335e-03,
          2.65918560e-02, 5.34357736e-03, -1.45690143e-02,
          2.16405792e-03, 2.21814169e-03, 3.71561609e-02,
          -1.52983489e-02, -7.47409370e-03, 9.07817099e-04,
          -3.29087675e-02, -7.93931424e-04, -1.32177025e-03,
          4.99050580e-02, 3.14213932e-02, 2.46114619e-02,
          -3.37251984e-02, -1.43635450e-02, 1.12842058e-03,
          -2.78899949e-02, -4.88747843e-03, 1.42031424e-02,
          -4.00745368e-04, 1.65907890e-02, 3.09494548e-02,
          -1.99120399e-02, 4.36839201e-02 ]
      - [ 2.56795180e-03, -1.21938251e-02, 1.22472150e-02,
          2.91732978e-02, -2.03860793e-02, -2.78892480e-02,
          1.28347073e-02, 2.80299988e-02, -1.98634341e-03,
          1.27050595e-03, 3.81802730e-02, -3.55233513e-02,
          -4.15253174e-03, -5.98513475e-03, 1.29090939e-02,
          -1.91770226e-03, 3.06058452e-02, -1.88909136e-02,
          -4.69310721e-03, 9.22293868e-03, -2.67355219e-02,
          -2.94423178e-02, 1.58441868e-02, 7.59367691e-03,
          2.45910939e-02, 3.05020958e-02, 2.68679485e-02, 2.49820333e-02,
          2.12170742e-02, 4.62119747e-03, -6.89797616e-03,
          4.91638761e-03, 2.08536182e-02, 9.26060602e-03,
          -8.62529560e-04, 1.09230354e-02, 5.40993772e-02,
          1.21103022e-02, 3.26781012e-02, -2.71321996e-03,
          -2.59682648e-02, 5.11138607e-03, -7.49214459e-03,
          5.32884337e-03, 4.60852757e-02, -1.03263212e-02,
          1.81372594e-02, 4.04754356e-02, -3.05582527e-02,
          2.54969019e-02 ]
      - [ -3.08787003e-02, -4.43715379e-02, -1.88688524e-02,
          -2.63366587e-02, 4.66734683e-03, -2.28500571e-02,
          -3.33233252e-02, 3.47438343e-02, 1.11406520e-02,
          -5.03209233e-03, -1.75083913e-02, 8.33203550e-03,
          1.85289001e-03, -2.69652214e-02, 7.29607302e-04,
          2.22530607e-02, 3.12539842e-03, -6.42572939e-02,
          4.81952392e-02, -3.25421337e-03, -1.82900717e-03,
          -4.47582044e-02, 9.91693325e-03, 6.28714915e-03,
          5.15177585e-02, 1.23524200e-02, 5.18720634e-02,
          -1.22942524e-02, -1.53076770e-02, -3.19821350e-02,
          -1.32034682e-02, 7.78705347e-03, 4.35412209e-03,
          -1.76160689e-02, -4.40878654e-03, 2.05604136e-02,
          5.58507442e-02, 1.90583523e-02, -1.64387524e-02,
          -1.42080961e-02, -3.26792113e-02, 4.66079935e-02,
          -5.24755381e-03, 2.43675127e-03, 4.55783904e-02,
          -2.33875010e-02, 1.74222887e-02, 2.26120520e-02,
          -1.77912023e-02, 1.00997435e-02 ]
      - [ -3.87886949e-02, -1.18158534e-02, -6.11975696e-03,
          -2.17275135e-03, -3.43981273e-02, -2.09161732e-02,
          1.06822345e-02, 1.06247412e-02, -1.79647096e-02,
          -2.82472055e-02, 1.44304764e-02, -9.50581115e-03,
          1.98786519e-02, -1.34101203e-02, 7.62150297e-03,
          -1.99465696e-02, 2.15890966e-02, -6.21958040e-02,
          4.15171310e-03, -1.60364155e-02, -1.57673955e-02,
          -5.18312901e-02, -1.20565062e-02, 7.17820087e-03,
          4.93204482e-02, 1.44322691e-02, 1.45351244e-02, 9.03876964e-03,
          2.06997991e-03, 7.90136494e-03, 3.69469309e-03,
          -8.99902487e-04, 1.14969490e-02, -2.08409131e-02,
          5.07164747e-03, -7.35242479e-03, 7.87469819e-02,
          2.25311108e-02, 2.14141924e-02, 3.05553852e-03,
          -1.21277263e-02, 5.98140899e-03, -1.41996238e-02,
          1.23660639e-02, 3.52074206e-02, -4.65339283e-03,
          2.64961203e-03, 2.31407974e-02, -3.84742171e-02,
          2.83710249e-02 ]
      - [ -2.08720472e-02, 9.52994823e-03, -1.57525744e-02,
          -1.77546423e-02, 1.16676614e-02, -4.15589754e-03,
          -1.63805690e-02, 9.66751482e-03, -1.63201732e-03,
          1.75506226e-03, 1.12872422e-02, 1.83429047e-02,
          -2.34592315e-02, -4.92742099e-03, 3.40433838e-03,
          -1.97217278e-02, 2.92240344e-02, -1.85822439e-03,
          6.16067974e-03, 1.97555199e-02, 1.87000018e-02, 1.40822923e-03,
          -1.96778048e-02, 3.84032801e-02, -3.30870901e-03,
          -9.91920847e-03, 1.18717030e-02, 1.84984151e-02,
          -3.08289267e-02, 1.71012580e-02, -1.03699067e-03,
          -7.84422643e-03, -2.57847868e-02, -1.40281226e-02,
          1.11844961e-03, -2.46975794e-02, -2.06912011e-02,
          4.17897701e-02, 1.26373293e-02, -4.04988267e-02,
          -2.28878651e-02, -1.22672487e-02, 4.35509160e-02,
          3.27054318e-03, 3.51338414e-03, -1.02133658e-02,
          -2.92917471e-02, 1.27691822e-02, 2.48551890e-02,
          2.85152718e-02 ]
      - [ -2.17886325e-02, -3.76583636e-02, 3.25026899e-03,
          3.23467678e-03, 8.88886768e-03, -1.58782594e-03,
          1.69144804e-03, -1.52831953e-02, -1.39813796e-02,
          -3.13321431e-03, 2.78375205e-02, 1.16272038e-02,
          2.81676976e-03, -1.01386581e-03, 3.48903351e-02,
          6.85682986e-03, -7.19985226e-03, 2.77341180e-03,
          1.08655123e-02, 6.41987799e-03, 4.31543170e-03,
          -7.44000124e-03, 2.84466939e-03, 2.42254660e-02,
          7.58380536e-03, 4.99776215e-04, 2.74693631e-02, 1.36967534e-02,
          -2.00316422e-02, 1.34063582e-03, 4.92715463e-03,
          -2.05800273e-02, -1.09223677e-02, -2.15154532e-02,
          -9.11847688e-03, -1.36739472e-02, 4.01779450e-03,
          1.83077957e-02, 1.73504986e-02, -3.05958427e-02,
          -4.54894174e-03, -2.84641748e-03, 4.22464348e-02,
          1.09243793e-02, -4.39668680e-03, -4.47926251e-03,
          -3.38267721e-02, 9.36843455e-03, 1.38533944e-02,
          1.45899672e-02 ]
      - [ 1.32740452e-03, -2.23022848e-02, 4.97629819e-03,
          9.38246120e-03, 5.87489177e-03, -1.40243657e-02,
          -1.71969528e-04, 2.04838086e-02, 2.15642322e-02,
          1.77934561e-02, 1.03051635e-02, 1.41309025e-02,
          -9.81443282e-03, 2.44697253e-03, 2.72927787e-02,
          2.03464869e-02, 8.01405311e-03, -6.58540102e-03,
          1.81740168e-02, 2.32358109e-02, 4.68245298e-02,
          -6.25674892e-03, -1.51963932e-02, 1.89398061e-02,
          1.13852359e-02, -6.20282860e-03, 8.34347494e-03,
          2.09861808e-02, -8.29111971e-03, 1.98965035e-02,
          -2.47572549e-03, 1.07141342e-02, -9.10701510e-03,
          1.87154002e-02, -2.53052916e-02, -1.58717409e-02,
          -9.37157683e-03, 9.01226234e-03, 8.12845118e-03,
          -2.90168934e-02, -2.41033528e-02, -3.63871735e-03,
          1.99891049e-02, 2.02059429e-02, 3.54820155e-02,
          -1.63317062e-02, -1.69634409e-02, 2.40284633e-02,
          1.27788698e-02, 1.35033811e-02 ]
      - [ -3.90578955e-02, 6.49410672e-03, 1.28011452e-03,
          1.52289052e-03, 1.61820017e-02, 5.11882734e-03,
          -4.56291065e-03, 1.16071254e-02, 6.03336550e-04,
          1.57637027e-04, -5.60113136e-03, -3.86244617e-03,
          -2.11188365e-02, 1.05697950e-02, 2.08732300e-02,
          1.22646904e-02, 3.70162465e-02, -1.06608002e-02,
          -1.09299868e-02, -1.02097541e-02, 3.40552852e-02,
          4.13380191e-03, -7.20564416e-03, 2.16908883e-02,
          6.32783445e-03, -3.22826356e-02, 2.67457999e-02,
          1.04556140e-02, -2.57756468e-02, 2.46147718e-02,
          5.97537553e-04, 7.10935472e-03, -2.90265046e-02,
          -2.87470873e-02, -1.20219644e-02, -1.98135115e-02,
          1.53716728e-02, -1.60720723e-03, 8.87915434e-04,
          -2.08954159e-02, -2.14136280e-02, -1.15050096e-02,
          3.71023640e-02, -1.58332307e-02, 4.16614115e-03,
          2.97099585e-03, -3.26814130e-03, 2.62420028e-02,
          1.50074521e-02, -1.26209939e-02 ]
      - [ 1.11877779e-02, -6.77444367e-03, -1.39206946e-02,
          2.65752133e-02, 2.60337200e-02, 1.07051488e-02,
          -4.40243352e-03, -8.86778289e-04, -2.33465284e-02,
          4.42413008e-03, -1.92033825e-03, 1.95380412e-02,
          3.52165443e-05, 1.15665402e-02, 1.40687656e-02, 2.95174997e-02,
          4.96377982e-03, -1.10289101e-02, 1.51693979e-02,
          -2.57731823e-04, 4.53025885e-02, -2.57946434e-03,
          1.35910744e-02, 7.33202498e-04, 1.44384773e-02,
          -1.55506365e-03, -4.83463146e-03, 1.53232533e-02,
          -3.59860174e-02, 2.86692381e-02, -5.03670890e-03,
          7.17324251e-03, -1.87384021e-02, -3.24866250e-02,
          -2.17363350e-02, -1.25107151e-02, -3.07926419e-03,
          2.87051033e-02, 1.59236398e-02, -3.15765589e-02,
          -2.75559016e-02, -1.32166892e-02, 2.44532172e-02,
          5.37206465e-03, 8.24784860e-03, 6.16401993e-03,
          -6.09091809e-03, 3.49918306e-02, 1.16614206e-02,
          1.71746388e-02 ]
      - [ 2.65687462e-02, -2.40257867e-02, -5.86487679e-03,
          3.64354514e-02, 8.81365594e-03, -8.06551985e-03,
          2.58115167e-03, -6.36443216e-03, 5.38938353e-03,
          -1.77481622e-02, 6.95280172e-03, -2.26473287e-02,
          -3.94115923e-03, -1.16740528e-03, 3.86366970e-03,
          1.87718198e-02, 1.80379953e-02, 2.54680011e-02, 2.31480673e-02,
          2.98723187e-02, 3.90248857e-02, -5.40946191e-03,
          7.05697574e-03, 2.17222571e-02, 2.38158158e-03, 1.16547372e-03,
          2.35056672e-02, 2.91981027e-02, -5.49171772e-03,
          2.22770683e-03, -1.24737462e-02, 1.57081764e-02,
          -2.17551477e-02, 3.98728205e-03, -2.77149137e-02,
          -1.42463613e-02, 1.84006407e-03, 3.36958990e-02,
          1.96767170e-02, -2.78822482e-02, -2.12852098e-02,
          1.74905325e-03, 3.98044921e-02, -1.18191000e-02,
          2.44762618e-02, -6.27406128e-03, -1.69118270e-02,
          3.63496691e-02, 3.14376876e-03, 1.33252805e-02 ]
      - [ 7.74093112e-03, -2.95826234e-02, 3.57388961e-03,
          5.31998184e-03, 4.66091037e-02, -1.02983769e-02,
          -3.70731279e-02, -6.03722438e-05, -2.46626860e-03,
          -1.80946533e-02, -2.29824428e-02, -1.22426366e-02,
          -2.18248796e-02, 1.49656227e-03, 2.17870492e-02,
          9.73677170e-03, 2.07210332e-02, 5.20390458e-03, 2.45348476e-02,
          3.45896650e-03, 2.74775960e-02, -1.57684796e-02,
          -4.42331145e-03, 1.53647466e-02, 4.77581844e-03,
          -2.28143800e-02, 1.93887223e-02, 3.84100229e-02,
          -2.14413963e-02, -1.11547047e-02, -4.44883201e-03,
          1.88935536e-03, -2.79191807e-02, -1.93192605e-02,
          -1.29051674e-02, -1.47887887e-02, 3.63935065e-03,
          2.77520940e-02, -1.51695656e-02, -1.63403843e-02,
          -2.23103482e-02, 2.56254664e-03, 3.12188473e-02,
          -2.81085027e-03, 2.51005162e-02, -2.97879111e-02,
          -2.37151738e-02, 2.91857831e-02, 1.91271938e-02,
          2.29015537e-02 ]
      - [ 6.98482443e-04, -2.52108462e-02, -7.33226305e-03,
          1.08315814e-02, 5.39208483e-03, 9.67202068e-04,
          -1.63968690e-02, -3.07881422e-02, -1.14248451e-02,
          -1.78075470e-02, -1.81313399e-02, -6.53232168e-03,
          9.11480188e-03, -2.74426769e-04, 2.57419106e-02,
          1.74127165e-02, 2.43479144e-02, -9.24615422e-04,
          2.32237224e-02, 1.42291132e-02, 3.56648117e-02,
          -1.56249451e-02, -2.93194316e-02, 3.15726362e-02,
          1.11208726e-02, -1.66053846e-02, 2.67614089e-02,
          5.73538058e-02, -2.48826314e-02, 2.22174022e-02,
          3.05210333e-03, -9.53326840e-03, -2.37804502e-02,
          -3.57392058e-02, -2.34727822e-02, -2.49297228e-02,
          9.70441755e-03, 4.27411199e-02, 1.97098553e-02,
          -6.92567304e-02, -1.60375088e-02, 9.31407884e-03,
          4.98302020e-02, -1.52401375e-02, -3.06941406e-03,
          -3.85765918e-02, -1.39872115e-02, 3.09611838e-02,
          3.76002188e-03, 1.25922933e-02 ]
      - [ -1.07947281e-02, -4.66393568e-02, 1.91832650e-02,
          3.46060432e-02, 8.03989638e-03, 6.27285362e-06, 2.64348518e-02,
          -7.21258717e-03, -3.16349394e-03, -2.19956855e-03,
          2.16886438e-02, -1.61709506e-02, 4.24519256e-02,
          -3.84520181e-03, 2.96466984e-02, 3.24003771e-02,
          -2.44780518e-02, 9.69502050e-03, -5.98254753e-03,
          -1.72206275e-02, -3.39938281e-03, -4.37476858e-03,
          1.84346717e-02, -1.42522268e-02, 6.47250703e-03,
          9.25138220e-03, 1.01937028e-02, -5.06053632e-03,
          -2.16685496e-02, -5.64568629e-03, -9.02519154e-04,
          -3.47217591e-03, 1.83411911e-02, -8.84007849e-03,
          -1.38719343e-02, 1.63471587e-02, 2.22739000e-02,
          6.62900601e-03, 2.73478925e-02, -1.13808559e-02,
          1.30119082e-02, 3.35560627e-02, 4.55221757e-02, 7.42929149e-03,
          -2.47581303e-03, -1.27135199e-02, -3.89406942e-02,
          6.67379797e-03, -6.81512663e-03, -2.63026915e-04 ]
      - [ -5.55751985e-03, -4.39951420e-02, 2.51889415e-02,
          4.31028195e-02, 8.31358414e-03, 3.91187612e-03, 1.52577329e-02,
          2.39901207e-02, 3.71614806e-02, 2.27770135e-02,
          -7.57295464e-04, -1.50107592e-02, 1.77773442e-02,
          1.76392104e-02, 5.25586912e-03, 3.65429781e-02,
          -9.96343326e-03, -1.32750673e-02, 1.13890348e-02,
          5.47301909e-03, 2.91985907e-02, 9.44340043e-03,
          -1.44788269e-02, -3.23357247e-02, -1.01640299e-02,
          4.40325559e-04, -7.27165444e-03, 2.21692286e-02,
          3.84726329e-03, 6.37247972e-03, 1.78668145e-02, 1.01911463e-02,
          1.68317650e-02, 3.14863361e-02, -4.13532890e-02,
          6.29546028e-03, 5.51377749e-03, -1.81215536e-02,
          -5.49098477e-03, 3.51105747e-03, -7.73664843e-03,
          1.25874011e-02, -1.38351030e-03, 3.40609141e-02,
          4.44740430e-02, 9.15374700e-03, 4.42674058e-03, 4.82261600e-03,
          -1.28266690e-02, -2.31066123e-02 ]
      - [ -1.39107816e-02, 0., 7.94900581e-03, 5.64094968e-02,
          1.74923390e-02, 3.97683773e-03, 1.41014094e-02, 5.20911347e-03,
          1.36233578e-02, 5.83611010e-03, -1.65795088e-02,
          -2.74154171e-02, 1.18414043e-02, 4.78009507e-03,
          2.00518630e-02, 4.73072641e-02, 1.20574683e-02,
          -7.19743175e-03, -4.57462519e-02, -4.96408120e-02,
          7.01750582e-03, -2.74948962e-03, -8.20178818e-03,
          -1.33713437e-02, 1.16934590e-02, -5.53603657e-02,
          9.76564363e-03, -7.63216102e-03, -3.47859263e-02,
          1.09305782e-02, 7.50839245e-03, 1.66545212e-02,
          -2.34335125e-03, -8.37722607e-03, -2.02302653e-02,
          -8.52692779e-03, 2.97766998e-02, -2.11164113e-02,
          5.72303869e-03, 1.64747331e-02, -2.12421492e-02,
          2.50469558e-02, 2.61625759e-02, -1.06024491e-02,
          -2.52957991e-03, 1.75905265e-02, 2.70452518e-02,
          2.49895696e-02, 9.44847648e-04, -2.01513600e-02 ]
      - [ 1.42827188e-03, -5.69450902e-03, 1.57271866e-02,
          5.19822687e-02, 3.12661529e-02, 3.41257011e-03, 3.20732743e-02,
          -1.46241477e-02, -1.40376715e-02, 8.74405354e-03,
          -1.62716191e-02, -6.65387698e-03, 1.64465569e-02,
          2.36410908e-02, 4.36979404e-04, 3.89807932e-02, 1.75581984e-02,
          8.92783166e-04, 1.53337009e-02, -2.31518093e-02,
          1.42586706e-02, -6.50922488e-03, 2.80321166e-02,
          -4.43556868e-02, 1.43427067e-02, -1.12526473e-02,
          -3.05561330e-02, -6.18944550e-03, -1.49242450e-02,
          2.02035904e-03, 4.75917617e-03, -2.05002516e-03,
          5.50684519e-03, -3.65599468e-02, -2.62781810e-02,
          1.07532097e-02, 2.04356927e-02, -9.70530417e-03,
          1.91975196e-04, -9.82819777e-03, -4.98300791e-03,
          6.79197023e-03, -6.83388067e-03, 1.71638117e-03,
          1.25041408e-02, 3.57872769e-02, 1.60116479e-02, 1.29956724e-02,
          -1.64035391e-02, -1.72369380e-03 ]
      - [ 3.70166488e-02, -2.47300435e-02, 3.33329365e-02,
          4.89640310e-02, 1.21333487e-02, -8.86540487e-03,
          3.66850495e-02, -3.88924638e-03, 1.92784183e-02,
          -4.72429860e-03, 5.70619898e-03, -4.22031023e-02,
          2.92950254e-02, 6.43109251e-03, 5.13506774e-03, 3.40599082e-02,
          1.67412702e-02, 2.37547699e-02, 9.44076106e-03, 1.09905016e-03,
          -3.00968136e-03, 1.06836837e-02, 2.05012131e-02,
          -2.86924001e-02, 2.14774092e-03, -4.81739547e-03,
          4.54950659e-03, 8.04353040e-03, 5.78919891e-03,
          -9.28830914e-03, 1.46211656e-02, 1.73183996e-02,
          1.81256719e-02, 8.34858324e-03, -1.71680283e-02,
          2.55519729e-02, 2.15202365e-02, 5.30396868e-03, 1.32136140e-02,
          2.23230082e-03, -9.35157575e-03, 2.28382796e-02,
          1.03826905e-02, -7.96925928e-03, 1.71349328e-02,
          5.22961607e-04, 1.04693985e-02, 9.95108299e-03,
          -3.11395582e-02, -7.61346845e-03 ]
      - [ -9.18134488e-03, -3.53217125e-02, 2.54015010e-02,
          2.03417204e-02, 6.07091375e-02, 6.89317612e-03,
          -2.36988626e-02, -2.02088361e-03, 2.48475722e-03,
          -3.38293030e-03, -3.12130190e-02, -5.33679947e-02,
          2.75919009e-02, 1.32965231e-02, 1.38796000e-02, 2.77034026e-02,
          -1.25136413e-03, -3.13786045e-03, 3.13328132e-02,
          -2.80971080e-02, 1.26085868e-02, 6.06515119e-03,
          1.91348195e-02, -5.72326668e-02, 1.57981075e-03,
          -3.02759185e-02, -6.80363132e-03, 1.25067178e-02,
          5.62169682e-03, -5.04223593e-02, -8.16392340e-03,
          8.46605469e-03, 6.66904775e-03, -4.79360018e-03,
          -1.12636983e-02, 2.86384467e-02, 3.70312133e-03,
          6.29762746e-03, -5.15528629e-03, 1.34114008e-02,
          -1.79391447e-02, 2.39092354e-02, 2.20979974e-02,
          -2.31110770e-02, 2.66016033e-02, -5.34360006e-04,
          9.89327440e-04, -1.34915020e-02, -9.94606316e-03,
          -1.77690096e-03 ]
      - [ 1.12049123e-02, -2.38339044e-02, 2.15426665e-02,
          7.28747323e-02, 1.40619315e-02, -1.38801914e-02,
          3.82058658e-02, -3.56427394e-02, -2.80655008e-02,
          -2.59415265e-02, -7.32258288e-03, -3.94436456e-02,
          6.56337216e-02, 1.68889239e-02, 3.85442078e-02, 3.40250880e-02,
          2.34276932e-02, -5.42784017e-03, 4.26652085e-04,
          -3.13135535e-02, 1.54547580e-02, -2.49404125e-02,
          1.94355461e-03, -4.31030802e-02, -4.65240097e-03,
          -7.60748517e-03, 1.12434002e-02, 1.57233570e-02,
          -9.69053339e-03, -2.26407349e-02, 5.95215661e-03,
          -8.99270829e-03, -6.48406614e-03, -2.95014028e-03,
          -3.19585539e-02, 4.17155251e-02, 5.18700257e-02,
          -1.47163700e-02, 1.24261379e-02, -2.67492636e-04,
          1.31506594e-02, 3.14862677e-03, 1.48954717e-02,
          -2.38147620e-02, -1.07470080e-02, -2.79947370e-03,
          -1.93447433e-02, -7.49688316e-03, -4.02756594e-02,
          -2.87067387e-02 ]
      - [ 2.37961002e-02, 1.08075347e-02, 2.39811232e-03, 1.26840388e-02,
          2.28108410e-02, 1.11463014e-02, -2.13160017e-03,
          1.29890833e-02, 2.60016024e-02, 1.16714695e-02,
          -1.36060659e-02, 1.14754066e-02, -7.69871240e-03,
          2.15346366e-02, -1.14472602e-02, 1.07989088e-02,
          1.85958564e-03, -5.57212252e-03, 1.85556337e-02,
          -4.45669284e-03, 2.67135277e-02, -1.86130684e-02,
          -1.29830576e-02, -1.24831945e-02, -1.01114064e-02,
          -1.23817688e-02, -6.71623508e-03, 1.45476591e-02,
          2.50371508e-02, 7.46497652e-03, 4.83183376e-03, 2.08973903e-02,
          -8.59349966e-04, 2.64207218e-02, -8.38302635e-03,
          -2.84753810e-03, -2.21471284e-02, -2.50048358e-02,
          -2.12157536e-02, 2.19087601e-02, -1.12793939e-02,
          -4.76203440e-03, -2.72992868e-02, 2.03516651e-02,
          4.40529212e-02, -2.51266686e-03, 6.17973953e-02,
          3.59480595e-03, -1.38507998e-02, -9.49105155e-03 ]
      - [ -3.03427980e-04, 3.85126807e-02, -1.45053826e-02,
          1.03844078e-02, 5.22393128e-03, 2.79019098e-03,
          -1.30521404e-02, 2.01348215e-02, 9.43598803e-03,
          -8.01428512e-04, -3.44523191e-02, -9.34914500e-03,
          -1.94830168e-02, 2.45683305e-02, -6.83795800e-03,
          2.23918189e-03, 2.67648548e-02, -6.52867695e-03,
          -1.15061831e-02, -2.45339870e-02, 2.14215051e-02,
          -1.17327021e-02, -1.70136448e-02, -1.71416078e-03,
          -7.24108977e-05, -2.65978947e-02, 7.15815804e-06,
          3.98346968e-03, 2.29278989e-02, 2.60406304e-02,
          -2.34210282e-03, 2.72711348e-02, -2.26076841e-02,
          1.82116982e-02, -2.34179990e-03, -8.45283829e-03,
          -5.47831273e-03, -2.31946371e-02, -2.44189017e-02,
          2.32813954e-02, -1.93957165e-02, -9.70572641e-04,
          -2.12320015e-02, -1.87649708e-02, 2.19368236e-03,
          2.12645251e-02, 5.33491857e-02, 1.40335094e-02, 1.03800762e-02,
          -2.63276696e-02 ]
      - [ 2.49454584e-02, 2.69441418e-02, -1.22585809e-02,
          3.63575257e-02, 8.54875334e-03, 2.94977278e-02,
          -6.07337477e-03, -4.96190565e-04, -3.25556844e-03,
          3.97152221e-03, -2.36690436e-02, 3.03800125e-03,
          -5.38926525e-03, 3.15017812e-02, -2.97951177e-02,
          8.57644808e-03, 4.11432376e-03, -1.13788852e-02,
          9.26172268e-03, -1.02208387e-02, 3.61853167e-02,
          -5.60462289e-03, 7.51270261e-03, -2.57565323e-02,
          -9.14601667e-04, 8.83672037e-04, -3.40934917e-02,
          7.25258468e-03, 6.34254934e-03, 2.60433722e-02,
          -1.55570507e-02, 1.20555237e-02, -2.84443167e-03,
          -2.99190008e-03, -2.79881489e-02, -2.16970965e-02,
          -7.24124210e-03, -7.73071498e-03, -9.59708542e-03,
          4.80988296e-03, -1.84894260e-02, -2.17487961e-02,
          -3.12273148e-02, 3.08270101e-03, 1.73457135e-02,
          7.93412421e-03, 4.20795903e-02, 1.20880939e-02,
          -3.39628896e-03, 4.87923360e-04 ]
      - [ 5.72579354e-02, 1.07980194e-02, -8.51454120e-03,
          3.19726355e-02, 5.55212656e-03, 3.06322263e-03,
          -6.41751429e-03, 8.65497068e-03, -9.43064969e-03,
          -2.21104007e-02, -1.20169986e-02, -2.36780327e-02,
          -2.70137493e-03, 1.09013934e-02, -3.32398713e-02,
          -4.59533930e-03, 1.84323695e-02, 1.45173967e-02,
          7.27082184e-03, -4.83874045e-03, 1.88799258e-02,
          -4.68060281e-03, 2.25136289e-03, -9.63861123e-03,
          -6.17627753e-03, -7.86468107e-03, -2.63791298e-03,
          2.40375549e-02, 1.53420987e-02, 6.35059364e-03,
          -4.89863427e-03, 3.10605224e-02, -1.61064207e-03,
          1.71495471e-02, -1.67151019e-02, 1.03248870e-02,
          -9.79803968e-03, -5.90068707e-03, -9.63977166e-03,
          2.65126638e-02, -2.01460514e-02, -1.47873173e-02,
          -1.23600895e-02, -7.67335808e-03, 3.26542556e-02,
          -4.39957948e-03, 4.45383377e-02, 2.69177370e-04,
          -2.66414136e-02, -1.63543876e-02 ]
      - [ 2.78090984e-02, 1.74573958e-02, -1.28219035e-02,
          2.03279266e-03, 1.93195846e-02, 1.76272970e-02,
          -4.03013416e-02, 1.32338982e-02, 1.18194912e-02,
          -9.81216598e-03, -4.11538407e-02, -1.76408198e-02,
          -2.70075537e-02, 2.04205960e-02, -2.87398510e-02,
          2.70217448e-03, 1.66384857e-02, -1.91204920e-02,
          3.01488694e-02, -5.10485750e-03, 2.24573873e-02,
          4.64507786e-04, -5.59917465e-03, -1.10180872e-02,
          -5.35557326e-03, -2.88203713e-02, -9.35330428e-03,
          1.40132718e-02, 1.56354140e-02, -1.03221228e-02,
          -3.86863947e-03, 3.10869198e-02, -2.08561532e-02,
          5.32635627e-03, 1.03144138e-03, 6.20320439e-03,
          -1.42088288e-03, -3.61996586e-03, -3.69756036e-02,
          1.86600499e-02, -2.24135574e-02, 2.21228041e-03,
          -2.31547300e-02, -2.08282620e-02, 2.33608168e-02,
          3.93332634e-03, 3.34406011e-02, 3.57174402e-04,
          -5.46346745e-03, -3.16145294e-03 ]
      - [ 5.73517494e-02, 3.02552637e-02, -2.27844082e-02,
          4.53711040e-02, 9.66303807e-04, -3.02564702e-03,
          -2.25102585e-02, 6.67618355e-03, -2.25638822e-02,
          -5.24567589e-02, -6.57801479e-02, -1.08186714e-03,
          -8.46017711e-03, 2.29594447e-02, -4.95798700e-02,
          -3.43227340e-03, 6.36738017e-02, -1.70633681e-02,
          2.90500578e-02, -1.14473170e-02, 3.79079245e-02,
          -2.90248152e-02, -1.43009424e-02, -3.14091220e-02,
          -1.67603344e-02, -1.98216680e-02, 8.14856961e-03,
          3.67518812e-02, 1.19984485e-02, 2.41477750e-02,
          -9.81693249e-03, 2.58513913e-02, -1.68131795e-02,
          3.47193740e-02, -3.21268737e-02, 1.31506352e-02,
          -1.06602786e-02, -3.92853208e-02, -3.60098593e-02,
          9.96769127e-03, -2.74168961e-02, -4.26502805e-03,
          -2.38561090e-02, -7.90474936e-04, 3.85899544e-02,
          -4.80567757e-03, 8.07837099e-02, 2.64398586e-02,
          -3.57976146e-02, -7.54686911e-03 ]
      - [ -6.22287532e-03, 3.48796956e-02, -1.04348361e-02,
          -8.51185434e-03, 1.27926692e-02, -4.85125091e-03,
          9.79094114e-03, -1.02274038e-03, -3.31531949e-02,
          -1.49060674e-02, -1.31532121e-02, -1.19577460e-02,
          9.32424888e-03, 1.93098783e-02, 8.24242365e-03, 3.86418030e-03,
          3.47515680e-02, 4.58989665e-03, -3.74643654e-02,
          -3.86203676e-02, -1.41678099e-02, -6.74340874e-04,
          6.82039233e-03, 1.65059753e-02, 2.11506858e-02,
          -3.61440144e-02, 1.19583933e-02, -2.51327753e-02,
          -1.53768603e-02, 4.45196824e-03, -1.03587545e-02,
          3.55110504e-03, -2.54838597e-02, -3.82566079e-02,
          2.12080516e-02, 3.93726019e-04, 2.13093348e-02, 7.82523490e-03,
          1.61292171e-03, -1.42636308e-02, -1.21946465e-02,
          1.57514066e-02, 1.78576075e-02, -2.13552974e-02,
          -3.22782993e-02, 1.43430578e-02, 4.10845270e-03,
          1.51166075e-03, 1.11027295e-02, -5.49897291e-02 ]
      - [ 4.14718082e-03, 2.57389452e-02, -2.46710777e-02,
          2.68125697e-03, 1.05485385e-02, 1.79072134e-02, 2.57981196e-02,
          -3.24806087e-02, -4.42879312e-02, -1.05712209e-02,
          2.44417251e-03, 3.77973099e-03, 2.12801322e-02, 9.62337106e-03,
          -1.07931271e-02, 1.31433830e-02, -6.85376953e-03,
          -3.40605876e-03, -2.55240910e-02, -3.93428504e-02,
          -1.94281107e-03, 5.64886606e-04, 3.38520855e-02,
          -1.58610009e-02, 2.42472179e-02, -2.45149713e-03,
          -4.63090427e-02, -1.61491856e-02, -2.02590227e-02,
          -9.26907116e-04, -9.72376391e-03, -1.11126481e-02,
          -2.04934534e-02, -8.10407922e-02, 2.13921699e-03,
          2.10371427e-03, 1.36058126e-02, -4.76125220e-04,
          -4.03793296e-03, -5.62017411e-03, -7.22599076e-03,
          4.15474060e-04, -4.97568073e-03, -1.05420183e-02,
          -4.87291664e-02, 1.19308932e-02, 1.70515906e-02,
          -9.71092563e-03, 6.44367468e-03, 6.65008184e-03 ]
      - [ 6.45039156e-02, -1.80443060e-02, -4.69131395e-02,
          2.30144542e-02, -1.16807045e-02, -2.42592543e-02,
          2.09999494e-02, -2.15451773e-02, -4.53999825e-02,
          -5.14812730e-02, 1.51661765e-02, -5.80424145e-02,
          2.68558543e-02, 1.19332215e-02, -2.55835522e-02,
          -1.31493155e-02, 3.38246301e-02, 3.55451927e-02,
          -3.64641957e-02, -2.14571264e-02, -6.11612909e-02,
          2.72657797e-02, 1.38123683e-03, -7.69021362e-03,
          1.13622490e-02, -1.29705891e-02, 3.21628829e-03,
          5.70098520e-04, -4.33218759e-03, -4.22033556e-02,
          -9.65748541e-03, 1.14499461e-02, 1.37750925e-02,
          1.19996602e-02, 1.08975377e-02, 3.25761735e-02,
          -1.00920983e-02, 1.26943933e-02, 7.44030331e-05,
          1.29264975e-02, -1.75320581e-02, 5.82606159e-03,
          3.42466123e-02, -3.16016413e-02, -2.87774634e-02,
          4.33394132e-04, 5.01565356e-03, -1.46037415e-02,
          -2.56120078e-02, -8.61587841e-03 ]
      - [ 1.67989545e-02, -6.72532991e-03, -2.82482840e-02,
          -2.39859875e-02, 2.92145144e-02, 1.14910100e-02,
          -2.25844327e-02, -2.26177610e-02, -3.80526334e-02,
          -3.18453275e-02, -2.99824830e-02, -2.07914095e-02,
          1.32304430e-02, -5.99166425e-03, -1.25104291e-02,
          -1.17271617e-02, 2.54982598e-02, 7.22562056e-03,
          -2.62028305e-03, -3.56407166e-02, -2.76801940e-02,
          -1.83740351e-02, 2.07818374e-02, -4.30774689e-03,
          1.69473607e-03, -2.69245319e-02, 1.19637111e-02,
          -2.87457881e-03, -5.19671571e-03, -4.07337435e-02,
          -2.20076535e-02, -1.82366150e-03, -6.81572966e-03,
          -4.47972603e-02, 9.67280380e-03, 7.42363930e-03,
          1.12518826e-02, 2.07792632e-02, -3.26592624e-02,
          1.23832524e-02, 4.89153760e-03, 2.76443698e-02, 1.04821278e-02,
          -3.79622206e-02, -2.77237967e-02, 4.12273221e-03,
          -1.60103273e-02, -1.90258734e-02, 1.58442426e-02,
          -4.87650186e-03 ]
      - [ 2.48232447e-02, -1.71974883e-03, -3.23560610e-02,
          9.95985325e-03, 1.91432294e-02, -8.70221388e-03,
          7.77587248e-03, -5.35613075e-02, -4.71498221e-02,
          -3.84242460e-02, -1.32967848e-02, -2.51251981e-02,
          4.54223603e-02, 6.25943765e-03, -3.26471520e-03,
          -1.81876104e-02, 2.84757335e-02, 3.15525453e-03,
          -1.53945964e-02, -3.38365957e-02, -3.84986550e-02,
          -4.12089005e-03, -1.13509605e-02, -3.88063490e-03,
          7.55552296e-03, -2.00462919e-02, 2.23727338e-03,
          -1.26907220e-02, -9.35577694e-03, -1.52109647e-02,
          -1.13394549e-02, -3.17594819e-02, -9.77229234e-03,
          -5.56239188e-02, 1.94196973e-03, -1.63866132e-02,
          1.52881993e-02, 6.69822888e-03, -2.66496674e-03,
          4.92250687e-03, 7.86809437e-03, -2.75401864e-04,
          2.49954518e-02, -2.91823484e-02, -3.78686525e-02,
          8.30273639e-05, -2.15728804e-02, -2.66745891e-02,
          -2.42602918e-02, -5.48607484e-03 ]
      - [ 2.90529691e-02, -2.03663763e-02, -1.44509831e-02,
          3.71346846e-02, -8.39182734e-03, 1.11360811e-02,
          -8.24190909e-04, -3.70249003e-02, -2.13067252e-02,
          1.57839227e-02, -1.50334472e-02, 3.08914557e-02,
          5.66472439e-03, -4.03249264e-03, -1.69526078e-02,
          6.35416852e-03, -3.03127598e-02, -9.16556735e-03,
          4.54485044e-02, 2.12334339e-02, 5.93621749e-03, 4.09793603e-04,
          3.35811861e-02, -3.93412933e-02, 2.74936523e-04,
          4.15306240e-02, -5.73279299e-02, 2.28949189e-02,
          -3.20579996e-03, 1.27376860e-03, -4.03325586e-03,
          -3.45923402e-03, 1.66555494e-02, -2.12466884e-02,
          -2.29061116e-02, -5.57774818e-03, 1.65775244e-03,
          8.40820465e-03, 5.43922361e-04, -1.33947134e-02,
          1.33157047e-02, -1.08953342e-02, -3.07015833e-02,
          2.40262947e-03, 4.20167390e-03, 1.74905062e-02, 4.37443657e-03,
          -1.49724046e-02, -1.66016016e-02, 3.67719904e-02 ]
      - [ 6.63643554e-02, -3.38709243e-02, -4.54993825e-03,
          3.73113304e-02, -1.81379227e-03, -1.70748290e-02,
          -8.30253866e-03, -2.16417778e-02, 4.06150706e-03,
          -4.14534938e-03, 1.23332851e-02, -2.69383024e-02,
          6.22128416e-03, -1.11521007e-02, -2.35677585e-02,
          -1.86124686e-02, -8.88075400e-03, 2.73442362e-02,
          2.51863748e-02, 4.88774851e-02, -1.92475822e-02,
          7.04822177e-03, 1.18403714e-02, -9.42098722e-03,
          -2.11967360e-02, 3.44919711e-02, -5.64793218e-03,
          2.28062253e-02, -5.42545633e-04, -3.08882240e-02,
          -9.19439830e-03, -3.92759568e-04, 2.52802633e-02,
          1.35309426e-02, -1.11355493e-02, 9.50858556e-03,
          -5.35597792e-03, 1.86552666e-02, 5.67506393e-03,
          4.06773342e-03, 1.34505108e-02, -1.46173295e-02,
          2.64950190e-03, 3.54371360e-03, 6.68618781e-03,
          -5.40882023e-03, 1.95588428e-03, -1.74244754e-02,
          -3.87501232e-02, 3.39532085e-02 ]
      - [ 2.92634834e-02, -5.39598390e-02, 2.38225888e-03,
          -7.85011332e-03, 3.16038541e-02, 1.40228346e-02,
          -6.01452030e-02, -2.20851079e-02, -1.29244775e-02,
          4.65056999e-03, -4.54296963e-03, -2.03505140e-02,
          4.50285897e-03, -9.39642172e-03, -2.39440035e-02,
          -1.06499428e-02, -2.45591328e-02, -1.55317038e-02,
          6.07053898e-02, 9.33780055e-03, -6.00685133e-03,
          5.68947941e-03, 1.80317480e-02, -3.04665249e-02,
          -1.67372506e-02, 1.23977438e-02, -4.52701151e-02,
          4.03019637e-02, 1.30917598e-02, -6.07717298e-02,
          5.61513763e-04, -4.57798596e-03, 1.25767943e-02,
          1.11201815e-02, 8.58337153e-03, 1.62596107e-02, 1.11159710e-02,
          3.95711958e-02, -3.22707295e-02, 1.51448715e-02,
          1.17385695e-02, 4.85922210e-03, -7.04394886e-03,
          -7.83477165e-03, 8.48831609e-03, -4.25936392e-04,
          -5.20131439e-02, -1.71867553e-02, -2.40041595e-02,
          2.72506215e-02 ]
      - [ 3.97894010e-02, -3.30814607e-02, 4.95834602e-03,
          2.70039346e-02, -2.42886040e-02, -1.96784665e-03,
          -8.97907466e-03, -6.20839186e-02, -2.31995173e-02,
          -3.51521820e-02, 8.10165610e-03, -1.52044557e-02,
          5.34095503e-02, -2.89058927e-02, -9.71150678e-03,
          -1.70799643e-02, -4.26741131e-02, 1.40916696e-02,
          2.35053115e-02, 2.48810127e-02, -5.80753433e-03,
          -3.40387560e-02, -1.57060158e-02, -5.53462505e-02,
          -2.29778346e-02, 2.74229031e-02, -3.18694860e-02,
          2.48485189e-02, 2.20944118e-02, -5.65157793e-02,
          -6.08178554e-03, -9.77492705e-03, 2.67843027e-02,
          1.28933368e-02, -2.32036244e-02, -1.73357315e-02,
          4.80214227e-03, 2.95124836e-02, -4.04936122e-03,
          -1.65353678e-02, 3.86752747e-02, -7.35253561e-03,
          -5.28604863e-03, 3.47801228e-03, -8.51323456e-03,
          -1.54538937e-02, -4.88806665e-02, -2.54744180e-02,
          -8.66235644e-02, 2.93013342e-02 ]
      - [ 3.66520397e-02, -2.47875303e-02, 3.39168450e-03,
          6.06381474e-03, -6.69159507e-03, -2.50646342e-02,
          2.24220287e-03, 6.58402359e-03, 4.25052159e-02,
          -3.30890827e-02, 1.32922232e-02, -6.74699098e-02,
          -1.11412758e-03, -2.10166979e-03, -1.43460436e-02,
          -2.45686900e-02, 1.40818991e-02, 3.92234512e-02,
          -6.89954916e-03, 3.65543216e-02, -1.63831525e-02,
          9.72416345e-03, -1.10272234e-02, 2.44945064e-02,
          -5.29024517e-03, 3.74918384e-03, 5.34156933e-02,
          2.29575522e-02, 2.44460795e-02, -1.30684208e-02,
          4.44788486e-03, 1.19377207e-02, 1.75847160e-03, 3.46867591e-02,
          8.29039328e-03, 2.62359604e-02, -4.23728023e-03,
          1.61162410e-02, -9.12857591e-04, 1.59245748e-02,
          3.76030221e-03, 1.06122708e-02, 2.73511782e-02,
          -1.09264646e-02, 2.03569792e-02, -2.33177170e-02,
          -1.34258494e-02, 1.59994073e-04, -1.74486265e-02,
          -1.46016525e-02 ]
      - [ -2.09312998e-02, -2.93895341e-02, 3.94907109e-02,
          -5.52447997e-02, 2.03577820e-02, -6.39676303e-03,
          -4.40221205e-02, 2.72197071e-02, 1.71716921e-02,
          -2.82834247e-02, -1.75281428e-02, -2.90367920e-02,
          -2.90871062e-03, 1.29831787e-02, -5.83383907e-03,
          -2.27791946e-02, 1.93191804e-02, 2.29157675e-02,
          2.03694273e-02, -6.91200420e-03, -1.40322670e-02,
          1.33216642e-02, -2.02003308e-02, 5.29957563e-03,
          -1.88856199e-02, -2.60277018e-02, 5.24139479e-02,
          3.32984678e-03, 8.65548197e-03, -6.03062026e-02,
          3.81085696e-03, 7.52660725e-03, -1.16474582e-02,
          3.95444036e-02, 3.51821259e-02, 1.10566057e-02, 1.04104569e-02,
          -3.65467067e-03, -3.16101722e-02, 4.84196059e-02,
          1.72557924e-02, 1.46182114e-02, 2.66849119e-02,
          -1.21411094e-02, -1.40891643e-02, -2.91404277e-02,
          -3.28564979e-02, 6.49639929e-04, 9.37768724e-03,
          -1.11285262e-04 ]
      - [ -2.39473321e-02, -3.27511840e-02, 2.11544838e-02,
          -1.89509857e-02, -1.07246945e-02, -5.85429110e-02,
          -2.31745746e-02, 6.20589778e-03, 2.55916510e-02,
          -5.68382628e-02, -9.09961760e-03, -3.80808897e-02,
          1.73311699e-02, -1.44846588e-02, -1.69183407e-02,
          -7.32272044e-02, 2.37797499e-02, 6.28787559e-03,
          -1.47220176e-02, -2.12141611e-02, -4.55127023e-02,
          -8.91119055e-03, -6.00401685e-02, 3.30392942e-02,
          1.95670426e-02, -1.70642063e-02, 3.77685241e-02,
          5.90299405e-02, 2.74015795e-02, -6.07054569e-02,
          2.45347042e-02, -8.18532240e-03, -1.21343760e-02,
          4.88086008e-02, 3.67956869e-02, 2.09977943e-03,
          -1.41914338e-02, 7.67643703e-03, 1.07110702e-02,
          1.08612636e-02, 2.85615791e-02, 2.09052991e-02, 5.83313666e-02,
          1.62706282e-02, -2.52502095e-02, -4.92295027e-02,
          -3.91559117e-02, -3.74986306e-02, -5.61174341e-02,
          -3.74034345e-02 ]
      - [ -5.92048690e-02, 1.20471884e-03, -1.29962331e-02,
          -6.85268566e-02, 4.50544432e-02, 3.55752558e-02,
          -4.91776355e-02, 3.98389250e-03, 9.05216951e-03,
          1.50073972e-02, -4.18874510e-02, 2.60343440e-02,
          -1.39213922e-02, -2.92935185e-02, 5.62727358e-03,
          -4.21789009e-03, -3.24109867e-02, -3.31147537e-02,
          2.84720175e-02, -2.19598878e-02, 3.40984482e-03,
          -1.81494430e-02, -1.40779251e-02, -6.54858444e-03,
          2.34776409e-04, -3.23254876e-02, 1.25537757e-02,
          -1.33836037e-02, -1.73608195e-02, -2.48776358e-02,
          1.17302798e-02, 8.27567093e-03, -4.67009135e-02,
          -1.60432011e-02, 2.19857134e-02, -1.25449186e-03,
          1.23201618e-02, 5.99200663e-04, -3.51284705e-02,
          1.17109707e-02, 7.50921248e-03, 1.67486575e-02,
          -9.94913094e-03, -1.10902833e-02, -3.47630642e-02,
          3.06518679e-03, -1.14284819e-02, -1.15062185e-02,
          1.98823884e-02, -1.37994355e-02 ]
      - [ -1.22651093e-01, 6.94437837e-03, -3.94498277e-03,
          -8.11329558e-02, 2.89507140e-03, 3.65842991e-02,
          -1.80999096e-02, -1.29280575e-02, -5.31952977e-02,
          2.17115562e-02, -7.90886283e-02, 3.11544654e-03,
          1.58143938e-02, -2.44006198e-02, 9.13929865e-02,
          2.41467059e-02, -1.87757742e-02, -8.26750696e-02,
          2.89348438e-02, -3.98514010e-02, -4.41504084e-03,
          -1.96769051e-02, -1.04728393e-01, 3.75523674e-03,
          1.78072751e-02, -8.24234635e-02, -4.27552387e-02,
          -1.40419779e-02, -1.58513412e-02, -2.64541508e-04,
          1.06504960e-02, -2.56928150e-02, -7.65777901e-02,
          -3.43878902e-02, 2.87509710e-03, 1.78583376e-02,
          3.93348187e-02, -3.06692943e-02, -7.64989946e-03,
          1.33205811e-02, 4.60092351e-02, 7.14069381e-02, 1.10290674e-02,
          3.35247628e-02, -8.62268209e-02, -8.10103957e-03,
          -1.61412824e-02, -4.80240136e-02, 2.24917289e-02,
          1.28418142e-02 ]
      - [ -2.96784187e-04, -1.62892845e-02, -4.12876122e-02,
          5.73889166e-02, -9.98713896e-02, -1.10934805e-02,
          8.44419003e-02, -4.42052409e-02, -4.04560082e-02,
          -3.26861627e-02, 3.60155031e-02, -1.41887404e-02,
          5.71487583e-02, 1.20383478e-03, 3.09534706e-02,
          -1.01541877e-02, 4.58856523e-02, 4.01515923e-02,
          -2.94597223e-02, 4.40570712e-03, 2.27211232e-04,
          -4.13266104e-03, -5.96148567e-03, -5.85348206e-03,
          1.85825713e-02, 2.91893873e-02, 3.52656469e-02, 5.50667057e-03,
          -2.41844822e-02, 4.07728553e-02, -3.60548194e-03,
          -3.90477143e-02, 1.45412236e-02, -1.98061243e-02,
          -2.17094757e-02, -5.47155067e-02, -1.62473619e-02,
          -3.68181095e-02, 8.83403793e-02, -2.26396285e-02,
          4.22165655e-02, -1.41677493e-02, 2.04038117e-02,
          2.46246234e-02, 1.21242609e-02, -2.12238394e-02,
          -1.35775479e-02, -1.53642260e-02, -1.01613142e-01,
          -6.52722409e-03 ]
   uncompressed_sv_total: 277
   uncompressed_support_vectors:
      - [ 2., 3., 9., 0., 4., 10., 6., 3., 9., 9., 3., 1., 5., 2., 2.,
          3., 8., 2., 3., 6., 2., 0., 2., 3., 4., 5., 8., 2., 7., 5., 3.,
          1., 2., 2., 8., 2., 3., 0., 2., 5., 3., 2., 2., 5., 2., 8., 2.,
          8., 8., 4. ]
      - [ 5., 3., 2., 4., 3., 8., 6., 4., 5., 1., 3., 5., 2., 3., 1., 3.,
          1., 5., 6., 4., 1., 5., 4., 8., 6., 1., 6., 1., 5., 1., 4., 2.,
          3., 7., 10., 0., 11., 0., 8., 4., 2., 6., 2., 4., 3., 4., 5.,
          6., 3., 4. ]
      - [ 2., 3., 5., 7., 5., 5., 4., 8., 6., 4., 6., 2., 2., 6., 0., 8.,
          2., 2., 1., 5., 6., 6., 3., 8., 3., 5., 4., 3., 2., 3., 5., 1.,
          4., 8., 9., 1., 7., 1., 5., 2., 5., 5., 1., 3., 2., 1., 5., 4.,
          4., 2. ]
      - [ 4., 8., 4., 5., 1., 3., 4., 4., 0., 3., 12., 3., 2., 8., 7.,
          3., 3., 1., 2., 5., 2., 3., 4., 7., 4., 3., 11., 6., 3., 6.,
          4., 1., 3., 12., 8., 1., 5., 0., 4., 2., 2., 3., 1., 3., 4.,
          1., 3., 4., 5., 3. ]
      - [ 0., 4., 3., 1., 3., 4., 1., 6., 5., 3., 3., 4., 5., 6., 5., 2.,
          3., 1., 6., 5., 7., 7., 6., 4., 3., 4., 8., 5., 5., 3., 2., 1.,
          5., 7., 6., 1., 8., 0., 5., 3., 4., 1., 2., 5., 2., 3., 9., 5.,
          2., 7. ]
      - [ 3., 3., 7., 0., 3., 0., 6., 7., 6., 4., 7., 2., 7., 5., 4., 2.,
          7., 0., 6., 4., 3., 7., 6., 2., 2., 4., 8., 4., 5., 9., 3., 1.,
          4., 10., 10., 5., 2., 0., 0., 2., 1., 10., 1., 3., 1., 1., 3.,
          6., 2., 3. ]
      - [ 2., 2., 5., 3., 4., 8., 5., 3., 16., 1., 0., 1., 4., 6., 5.,
          3., 2., 2., 3., 8., 5., 3., 3., 3., 5., 6., 6., 2., 8., 7., 4.,
          0., 5., 2., 4., 4., 1., 0., 8., 3., 3., 6., 3., 9., 4., 1., 4.,
          7., 0., 1. ]
      - [ 6., 15., 4., 2., 3., 4., 10., 4., 13., 3., 4., 1., 4., 2., 5.,
          1., 4., 2., 6., 4., 2., 4., 4., 2., 4., 3., 4., 4., 1., 2., 5.,
          2., 3., 11., 6., 2., 7., 0., 3., 8., 0., 7., 1., 2., 2., 1.,
          3., 1., 4., 5. ]
      - [ 3., 3., 6., 4., 4., 1., 2., 2., 9., 4., 3., 4., 2., 3., 1., 1.,
          8., 5., 0., 7., 6., 6., 1., 2., 6., 10., 7., 3., 2., 3., 3.,
          1., 5., 4., 10., 4., 1., 0., 6., 7., 1., 5., 6., 3., 5., 1.,
          8., 11., 0., 1. ]
      - [ 4., 9., 1., 2., 5., 7., 14., 4., 8., 10., 6., 0., 5., 8., 0.,
          4., 3., 1., 3., 2., 2., 8., 1., 6., 1., 2., 4., 2., 3., 5., 2.,
          1., 4., 10., 8., 3., 4., 0., 2., 4., 2., 6., 1., 4., 3., 3.,
          4., 6., 1., 2. ]
      - [ 3., 6., 10., 0., 5., 5., 11., 5., 7., 2., 7., 0., 5., 5., 2.,
          4., 7., 4., 2., 1., 5., 7., 3., 7., 5., 2., 3., 5., 4., 5., 2.,
          2., 4., 8., 6., 0., 4., 0., 2., 3., 3., 5., 1., 0., 4., 3., 6.,
          6., 1., 3. ]
      - [ 3., 4., 7., 3., 2., 4., 11., 4., 9., 4., 2., 2., 9., 5., 4.,
          2., 9., 1., 2., 3., 8., 6., 8., 8., 2., 2., 3., 2., 3., 8., 3.,
          0., 1., 8., 10., 3., 2., 0., 4., 2., 2., 8., 0., 4., 2., 1.,
          2., 4., 3., 2. ]
      - [ 6., 4., 5., 7., 3., 5., 8., 1., 21., 9., 7., 0., 1., 2., 0.,
          4., 5., 2., 8., 2., 7., 2., 3., 4., 2., 3., 2., 2., 4., 5., 6.,
          3., 4., 2., 7., 1., 1., 0., 3., 3., 2., 4., 3., 4., 10., 1.,
          6., 2., 0., 4. ]
      - [ 1., 9., 4., 3., 5., 7., 0., 3., 0., 2., 8., 4., 2., 8., 5., 3.,
          3., 3., 5., 5., 6., 2., 1., 6., 4., 3., 5., 1., 4., 6., 5., 1.,
          6., 10., 5., 2., 7., 0., 2., 1., 1., 4., 2., 5., 4., 3., 12.,
          6., 1., 5. ]
      - [ 6., 0., 26., 1., 8., 3., 8., 2., 9., 0., 2., 9., 2., 2., 5.,
          4., 3., 3., 3., 2., 1., 0., 6., 4., 7., 5., 4., 5., 3., 8., 2.,
          7., 4., 4., 0., 2., 2., 0., 3., 1., 3., 3., 1., 1., 9., 7., 2.,
          4., 2., 2. ]
      - [ 3., 4., 11., 1., 2., 3., 4., 3., 0., 3., 4., 3., 1., 5., 6.,
          2., 11., 1., 2., 10., 2., 11., 14., 3., 0., 1., 2., 1., 3., 8.,
          9., 1., 1., 8., 5., 1., 7., 0., 6., 0., 1., 4., 1., 0., 0., 1.,
          10., 1., 15., 5. ]
      - [ 3., 2., 2., 5., 2., 8., 3., 2., 4., 3., 3., 4., 0., 7., 12.,
          4., 2., 2., 6., 5., 2., 2., 4., 6., 5., 2., 3., 2., 5., 3., 5.,
          1., 4., 7., 7., 2., 8., 0., 4., 3., 2., 8., 3., 3., 6., 5., 5.,
          2., 8., 4. ]
      - [ 2., 2., 3., 8., 4., 2., 2., 7., 0., 3., 4., 2., 2., 8., 14.,
          3., 3., 0., 2., 9., 2., 7., 3., 13., 3., 4., 5., 3., 3., 4.,
          2., 0., 3., 11., 5., 1., 17., 0., 8., 6., 1., 4., 1., 0., 1.,
          0., 1., 4., 5., 3. ]
      - [ 2., 5., 6., 4., 6., 17., 4., 8., 2., 4., 3., 4., 4., 2., 2.,
          3., 6., 3., 4., 2., 10., 9., 4., 8., 4., 5., 4., 5., 2., 2.,
          5., 1., 2., 7., 6., 2., 4., 0., 1., 2., 3., 4., 3., 2., 1., 1.,
          3., 3., 3., 3. ]
      - [ 2., 5., 3., 3., 2., 15., 2., 2., 4., 4., 4., 18., 1., 8., 1.,
          3., 6., 1., 3., 7., 3., 4., 5., 7., 2., 5., 3., 7., 4., 2., 2.,
          2., 3., 10., 4., 3., 13., 0., 2., 2., 3., 4., 2., 0., 4., 0.,
          6., 2., 1., 1. ]
      - [ 1., 4., 2., 8., 4., 7., 2., 5., 5., 6., 0., 2., 6., 6., 4., 3.,
          3., 3., 3., 2., 4., 8., 7., 4., 4., 3., 2., 3., 4., 4., 4., 2.,
          2., 10., 6., 3., 5., 0., 4., 3., 3., 4., 1., 2., 4., 1., 10.,
          4., 5., 8. ]
      - [ 4., 4., 5., 2., 6., 7., 5., 1., 7., 3., 2., 0., 0., 5., 4., 3.,
          6., 3., 4., 5., 6., 8., 3., 4., 3., 8., 5., 5., 4., 10., 8.,
          2., 5., 4., 4., 1., 6., 0., 3., 5., 1., 4., 1., 3., 5., 3., 7.,
          3., 0., 3. ]
      - [ 2., 7., 4., 2., 3., 6., 5., 1., 4., 3., 5., 15., 4., 5., 1.,
          5., 14., 2., 2., 6., 1., 0., 5., 16., 4., 4., 4., 3., 4., 5.,
          2., 2., 0., 6., 6., 0., 5., 0., 8., 1., 3., 3., 1., 2., 3., 1.,
          9., 2., 3., 1. ]
      - [ 3., 5., 4., 5., 4., 3., 3., 5., 26., 6., 6., 1., 2., 4., 2.,
          5., 4., 3., 1., 0., 7., 7., 1., 2., 2., 3., 3., 4., 2., 2., 3.,
          0., 3., 8., 9., 1., 6., 0., 3., 4., 4., 7., 1., 6., 3., 1., 2.,
          5., 6., 3. ]
      - [ 2., 6., 2., 2., 1., 13., 2., 1., 7., 3., 9., 19., 2., 10., 10.,
          4., 3., 2., 4., 8., 0., 1., 2., 8., 4., 3., 1., 4., 2., 3., 3.,
          1., 1., 5., 8., 2., 5., 0., 5., 1., 1., 6., 3., 2., 9., 2., 2.,
          4., 2., 0. ]
      - [ 2., 4., 4., 2., 5., 7., 9., 5., 4., 5., 7., 6., 3., 3., 4., 3.,
          5., 5., 1., 4., 5., 7., 6., 9., 5., 2., 4., 6., 3., 3., 5., 1.,
          5., 5., 4., 2., 5., 0., 1., 1., 1., 3., 2., 2., 7., 5., 2., 2.,
          4., 5. ]
      - [ 7., 3., 6., 5., 6., 6., 3., 0., 5., 5., 8., 1., 3., 5., 2., 0.,
          4., 3., 4., 2., 7., 5., 2., 1., 3., 3., 7., 5., 1., 4., 4., 2.,
          7., 6., 5., 7., 3., 0., 4., 7., 2., 3., 3., 5., 9., 4., 6., 3.,
          2., 2. ]
      - [ 1., 5., 2., 1., 3., 7., 0., 1., 4., 5., 9., 7., 1., 6., 0., 2.,
          3., 2., 6., 4., 3., 3., 5., 6., 4., 6., 8., 5., 3., 4., 2., 2.,
          2., 14., 7., 1., 1., 0., 5., 1., 4., 3., 4., 6., 10., 2., 8.,
          7., 2., 4. ]
      - [ 5., 5., 0., 6., 2., 8., 3., 5., 5., 4., 3., 6., 2., 5., 1., 5.,
          7., 2., 3., 3., 0., 4., 1., 7., 7., 2., 10., 4., 7., 6., 4.,
          0., 5., 6., 4., 5., 6., 0., 7., 2., 3., 3., 1., 5., 3., 1., 6.,
          1., 3., 7. ]
      - [ 1., 0., 7., 4., 1., 5., 8., 4., 3., 3., 6., 5., 3., 5., 2., 1.,
          11., 2., 2., 9., 3., 2., 5., 8., 7., 4., 5., 4., 2., 6., 4.,
          3., 3., 7., 8., 1., 10., 0., 6., 1., 0., 6., 1., 1., 3., 1.,
          5., 3., 6., 3. ]
      - [ 6., 1., 6., 2., 4., 6., 6., 1., 5., 2., 4., 5., 3., 6., 0., 5.,
          6., 4., 4., 2., 7., 9., 9., 9., 4., 2., 8., 4., 2., 4., 9., 0.,
          3., 4., 2., 3., 2., 0., 3., 5., 2., 7., 1., 3., 6., 1., 4., 6.,
          1., 3. ]
      - [ 1., 9., 7., 4., 3., 3., 10., 3., 5., 6., 2., 3., 5., 5., 7.,
          1., 4., 2., 5., 2., 5., 3., 5., 10., 2., 3., 8., 3., 2., 8.,
          5., 0., 2., 4., 4., 2., 2., 0., 2., 2., 2., 6., 1., 6., 1., 1.,
          6., 5., 10., 4. ]
      - [ 1., 4., 0., 5., 9., 3., 7., 6., 1., 4., 5., 2., 6., 1., 9., 6.,
          0., 4., 5., 5., 9., 2., 6., 1., 5., 3., 2., 9., 2., 3., 3., 2.,
          3., 1., 4., 3., 4., 0., 8., 5., 6., 1., 3., 11., 6., 4., 4.,
          4., 4., 0. ]
      - [ 3., 5., 6., 2., 2., 7., 7., 5., 10., 4., 3., 14., 0., 6., 2.,
          2., 4., 1., 1., 5., 1., 3., 5., 5., 4., 3., 2., 4., 0., 6., 2.,
          2., 0., 8., 6., 3., 5., 0., 8., 3., 3., 6., 1., 5., 6., 1., 6.,
          5., 1., 7. ]
      - [ 4., 5., 5., 1., 6., 6., 8., 6., 9., 3., 3., 5., 2., 0., 12.,
          3., 7., 2., 2., 4., 5., 9., 13., 7., 2., 1., 6., 4., 2., 6.,
          4., 0., 3., 2., 3., 1., 2., 0., 3., 3., 0., 6., 1., 3., 2., 4.,
          3., 5., 2., 5. ]
      - [ 3., 3., 0., 11., 0., 0., 0., 0., 0., 6., 2., 6., 0., 0., 5.,
          0., 0., 0., 5., 3., 13., 0., 19., 16., 4., 0., 0., 2., 8., 12.,
          0., 14., 3., 0., 0., 4., 0., 0., 12., 6., 14., 0., 6., 0., 0.,
          6., 5., 0., 3., 9. ]
      - [ 0., 2., 7., 4., 4., 13., 7., 1., 6., 1., 5., 4., 3., 8., 6.,
          8., 7., 0., 2., 2., 2., 9., 1., 2., 6., 9., 0., 3., 4., 4., 2.,
          3., 4., 3., 7., 2., 5., 6., 1., 6., 2., 8., 7., 4., 0., 2., 1.,
          5., 1., 1. ]
      - [ 0., 2., 4., 7., 9., 12., 6., 1., 0., 3., 6., 9., 1., 3., 7.,
          1., 4., 0., 0., 4., 3., 2., 1., 2., 3., 3., 0., 10., 6., 6.,
          2., 3., 6., 2., 6., 5., 1., 6., 1., 5., 3., 14., 1., 5., 0.,
          9., 3., 3., 3., 8. ]
      - [ 1., 4., 4., 3., 2., 5., 2., 5., 8., 0., 6., 7., 7., 0., 2., 2.,
          4., 0., 5., 0., 4., 3., 0., 2., 1., 3., 0., 9., 2., 6., 33.,
          3., 3., 0., 5., 2., 3., 5., 2., 8., 14., 2., 4., 0., 0., 7.,
          1., 8., 2., 2. ]
      - [ 1., 3., 3., 1., 0., 13., 3., 0., 5., 4., 3., 2., 0., 0., 7.,
          1., 1., 0., 2., 2., 2., 1., 6., 2., 2., 1., 0., 3., 3., 6., 2.,
          4., 6., 23., 4., 1., 3., 10., 4., 3., 9., 17., 7., 6., 0., 5.,
          7., 1., 6., 5. ]
      - [ 0., 1., 6., 3., 6., 6., 2., 1., 5., 2., 9., 6., 1., 3., 4., 1.,
          7., 0., 3., 2., 6., 7., 3., 4., 0., 8., 0., 4., 1., 7., 1., 7.,
          1., 2., 5., 3., 5., 19., 2., 7., 1., 7., 5., 11., 0., 3., 1.,
          2., 2., 8. ]
      - [ 5., 2., 4., 3., 3., 8., 3., 1., 3., 3., 10., 3., 0., 5., 4.,
          3., 1., 0., 4., 4., 1., 11., 2., 5., 5., 2., 0., 7., 1., 3.,
          8., 0., 5., 3., 3., 1., 4., 8., 3., 4., 1., 26., 4., 14., 0.,
          1., 5., 1., 1., 2. ]
      - [ 2., 0., 9., 2., 19., 9., 3., 0., 7., 6., 4., 0., 1., 0., 2.,
          15., 8., 0., 4., 3., 1., 4., 3., 5., 0., 2., 0., 3., 1., 8.,
          4., 1., 2., 2., 8., 3., 4., 2., 2., 5., 11., 7., 2., 8., 0.,
          4., 7., 1., 3., 3. ]
      - [ 2., 2., 4., 6., 6., 5., 2., 0., 2., 2., 6., 27., 0., 2., 4.,
          1., 5., 0., 3., 4., 4., 6., 2., 3., 3., 5., 0., 3., 5., 8., 1.,
          2., 5., 0., 6., 6., 3., 3., 4., 6., 8., 8., 3., 4., 0., 2., 9.,
          3., 3., 2. ]
      - [ 4., 2., 3., 0., 19., 0., 2., 0., 13., 11., 0., 0., 0., 0., 2.,
          0., 0., 0., 2., 3., 3., 9., 12., 9., 1., 8., 0., 1., 3., 4.,
          0., 13., 1., 0., 6., 6., 7., 5., 8., 4., 10., 4., 1., 9., 0.,
          4., 8., 0., 1., 2. ]
      - [ 2., 5., 3., 3., 1., 3., 4., 1., 7., 1., 10., 3., 1., 4., 11.,
          2., 2., 0., 3., 4., 2., 5., 2., 3., 7., 5., 0., 6., 6., 4., 8.,
          1., 3., 0., 2., 2., 8., 9., 3., 9., 3., 6., 3., 8., 0., 8., 7.,
          4., 2., 4. ]
      - [ 1., 0., 0., 4., 6., 19., 0., 1., 3., 1., 9., 32., 0., 1., 5.,
          0., 1., 0., 4., 2., 0., 2., 2., 3., 14., 6., 0., 0., 4., 8.,
          7., 4., 6., 0., 1., 4., 1., 2., 4., 6., 7., 6., 5., 2., 0., 2.,
          3., 1., 5., 6. ]
      - [ 1., 0., 4., 1., 14., 9., 1., 1., 8., 3., 5., 1., 1., 2., 5.,
          5., 7., 0., 3., 2., 0., 5., 4., 11., 2., 2., 0., 2., 4., 10.,
          2., 3., 6., 3., 7., 3., 3., 4., 3., 1., 10., 17., 4., 3., 0.,
          2., 7., 1., 5., 3. ]
      - [ 0., 2., 5., 1., 7., 4., 8., 2., 5., 2., 2., 5., 4., 12., 1.,
          3., 8., 0., 0., 4., 5., 5., 0., 2., 0., 4., 0., 1., 6., 0., 5.,
          3., 1., 0., 7., 0., 5., 7., 3., 5., 5., 5., 1., 7., 0., 3., 5.,
          6., 1., 0. ]
      - [ 1., 1., 4., 2., 4., 18., 3., 1., 0., 0., 2., 7., 6., 8., 2.,
          7., 7., 0., 3., 2., 5., 4., 2., 2., 8., 1., 0., 0., 4., 3.,
          11., 2., 1., 0., 10., 0., 7., 10., 1., 6., 2., 2., 4., 5., 0.,
          4., 7., 5., 0., 3. ]
      - [ 0., 1., 1., 2., 3., 7., 5., 1., 4., 3., 7., 9., 0., 1., 13.,
          2., 3., 1., 4., 3., 1., 5., 1., 5., 5., 8., 0., 0., 6., 11.,
          0., 3., 7., 3., 3., 3., 3., 3., 2., 10., 4., 6., 10., 4., 0.,
          4., 9., 5., 5., 4. ]
      - [ 6., 1., 1., 4., 4., 3., 1., 2., 2., 9., 2., 1., 1., 3., 7., 2.,
          2., 1., 2., 12., 3., 7., 16., 2., 3., 2., 3., 5., 3., 11., 13.,
          7., 2., 2., 1., 4., 5., 11., 4., 9., 8., 1., 0., 2., 1., 6.,
          0., 0., 1., 2. ]
      - [ 8., 5., 2., 4., 7., 8., 1., 1., 1., 8., 2., 1., 3., 5., 4., 4.,
          4., 0., 0., 16., 0., 7., 8., 5., 1., 3., 7., 5., 3., 1., 21.,
          7., 2., 4., 2., 3., 8., 2., 0., 6., 7., 2., 1., 3., 0., 3., 0.,
          1., 3., 1. ]
      - [ 6., 2., 0., 3., 3., 6., 3., 5., 3., 2., 3., 0., 5., 5., 6., 5.,
          2., 1., 0., 4., 0., 6., 3., 2., 1., 2., 1., 5., 1., 0., 6., 7.,
          2., 6., 2., 2., 8., 3., 0., 1., 7., 2., 2., 0., 1., 5., 0., 0.,
          1., 0. ]
      - [ 6., 3., 3., 11., 4., 6., 5., 2., 3., 6., 2., 0., 1., 0., 7.,
          4., 6., 2., 0., 3., 0., 4., 4., 4., 7., 2., 5., 2., 3., 3.,
          10., 3., 3., 5., 1., 5., 4., 4., 0., 7., 6., 0., 5., 0., 0.,
          8., 3., 0., 0., 0. ]
      - [ 3., 3., 5., 4., 2., 1., 4., 2., 6., 1., 2., 1., 6., 6., 0., 4.,
          1., 6., 1., 4., 3., 1., 3., 2., 1., 1., 0., 0., 9., 1., 4., 2.,
          12., 1., 5., 7., 1., 1., 3., 0., 6., 6., 12., 1., 8., 2., 37.,
          0., 9., 0. ]
      - [ 2., 4., 9., 0., 2., 1., 0., 5., 8., 3., 2., 1., 5., 6., 2., 6.,
          1., 4., 0., 6., 3., 1., 3., 4., 0., 3., 1., 3., 5., 0., 10.,
          4., 12., 3., 4., 9., 7., 2., 4., 1., 1., 2., 13., 2., 6., 2.,
          18., 2., 8., 0. ]
      - [ 5., 1., 3., 11., 7., 10., 3., 3., 3., 2., 3., 2., 2., 6., 3.,
          3., 8., 3., 2., 6., 6., 0., 3., 3., 6., 4., 7., 4., 10., 4.,
          3., 1., 1., 6., 5., 9., 2., 6., 3., 6., 6., 1., 3., 0., 1., 2.,
          3., 4., 3., 2. ]
      - [ 4., 1., 0., 8., 3., 4., 0., 0., 2., 2., 6., 3., 1., 5., 4., 2.,
          2., 0., 1., 4., 3., 5., 4., 2., 3., 1., 0., 1., 1., 8., 9., 4.,
          6., 0., 5., 2., 5., 8., 0., 3., 5., 3., 0., 0., 1., 3., 0., 3.,
          3., 0. ]
      - [ 5., 6., 0., 10., 4., 7., 1., 2., 0., 5., 2., 1., 1., 4., 10.,
          2., 8., 2., 3., 6., 5., 6., 4., 3., 2., 4., 3., 8., 5., 8.,
          16., 4., 3., 6., 3., 0., 3., 4., 3., 10., 6., 1., 0., 3., 1.,
          1., 0., 2., 4., 4. ]
      - [ 5., 3., 2., 2., 10., 4., 3., 4., 6., 1., 2., 0., 8., 2., 2.,
          6., 4., 8., 1., 5., 8., 2., 1., 2., 3., 2., 4., 2., 8., 1., 7.,
          4., 10., 2., 2., 2., 4., 5., 3., 3., 1., 3., 5., 3., 6., 0.,
          9., 5., 11., 4. ]
      - [ 5., 1., 6., 11., 6., 5., 2., 6., 4., 6., 4., 0., 5., 3., 2.,
          1., 4., 2., 9., 3., 2., 5., 2., 6., 8., 0., 10., 2., 4., 9.,
          4., 4., 1., 1., 1., 2., 4., 11., 6., 10., 3., 1., 1., 4., 0.,
          3., 1., 0., 5., 5. ]
      - [ 1., 0., 2., 0., 3., 1., 1., 5., 4., 0., 0., 1., 1., 0., 3., 1.,
          4., 0., 0., 3., 5., 1., 1., 1., 5., 0., 6., 1., 2., 2., 1., 3.,
          1., 5., 5., 0., 0., 0., 4., 8., 6., 3., 1., 1., 1., 1., 1., 1.,
          1., 0. ]
      - [ 2., 2., 1., 1., 6., 3., 3., 1., 4., 1., 4., 2., 3., 4., 6., 3.,
          1., 1., 0., 1., 6., 1., 0., 0., 6., 1., 3., 0., 4., 5., 3., 4.,
          0., 2., 3., 2., 1., 0., 4., 2., 2., 0., 1., 3., 0., 1., 0., 1.,
          1., 2. ]
      - [ 3., 3., 2., 10., 7., 16., 4., 8., 7., 1., 3., 0., 4., 2., 1.,
          5., 1., 3., 1., 1., 0., 4., 2., 3., 9., 1., 6., 0., 4., 20.,
          1., 2., 4., 0., 2., 1., 6., 2., 2., 9., 5., 1., 4., 1., 5., 3.,
          9., 6., 4., 2. ]
      - [ 3., 0., 3., 22., 5., 1., 2., 6., 5., 0., 6., 0., 0., 1., 0.,
          3., 3., 4., 2., 2., 8., 6., 1., 3., 5., 2., 6., 2., 2., 33.,
          2., 0., 4., 1., 3., 2., 5., 1., 7., 10., 3., 2., 2., 1., 3.,
          1., 2., 9., 5., 1. ]
      - [ 2., 2., 0., 9., 10., 10., 4., 5., 4., 4., 2., 0., 0., 1., 2.,
          0., 2., 5., 4., 4., 4., 5., 4., 5., 9., 2., 4., 2., 1., 15.,
          2., 1., 2., 0., 2., 3., 4., 8., 6., 11., 6., 0., 0., 7., 6.,
          3., 4., 4., 5., 5. ]
      - [ 1., 1., 0., 11., 6., 8., 1., 3., 4., 0., 6., 0., 0., 1., 1.,
          1., 7., 0., 2., 2., 8., 1., 1., 0., 4., 1., 6., 0., 0., 11.,
          0., 0., 2., 1., 1., 0., 1., 0., 2., 4., 3., 1., 0., 1., 3., 4.,
          3., 1., 2., 1. ]
      - [ 3., 2., 3., 10., 5., 4., 3., 0., 2., 3., 4., 0., 3., 3., 3.,
          2., 4., 4., 5., 3., 2., 9., 3., 2., 7., 1., 4., 0., 5., 4., 3.,
          4., 2., 6., 1., 4., 1., 10., 6., 4., 2., 0., 1., 3., 4., 2.,
          1., 3., 4., 8. ]
      - [ 3., 2., 3., 2., 6., 6., 3., 2., 11., 4., 3., 1., 3., 3., 1.,
          3., 3., 4., 5., 3., 9., 4., 3., 6., 7., 0., 6., 2., 5., 7., 1.,
          2., 8., 0., 6., 10., 1., 2., 10., 1., 1., 2., 2., 5., 5., 5.,
          6., 2., 8., 3. ]
      - [ 3., 4., 5., 4., 4., 5., 5., 5., 6., 1., 9., 1., 4., 4., 1., 4.,
          10., 4., 2., 7., 6., 2., 1., 0., 3., 2., 10., 4., 1., 2., 2.,
          4., 7., 6., 5., 3., 3., 4., 2., 7., 7., 3., 5., 2., 1., 3., 6.,
          2., 6., 3. ]
      - [ 5., 2., 0., 8., 4., 1., 8., 10., 10., 2., 6., 0., 4., 4., 1.,
          4., 2., 4., 7., 2., 9., 3., 0., 2., 11., 3., 8., 0., 3., 11.,
          0., 4., 3., 0., 5., 1., 4., 1., 5., 2., 4., 3., 5., 1., 7., 1.,
          4., 10., 4., 2. ]
      - [ 8., 6., 1., 3., 6., 8., 5., 4., 4., 4., 4., 2., 4., 1., 2., 2.,
          6., 2., 0., 10., 2., 7., 5., 2., 5., 4., 4., 3., 4., 1., 12.,
          4., 3., 3., 3., 8., 7., 9., 5., 6., 5., 0., 2., 0., 0., 4., 0.,
          2., 5., 3. ]
      - [ 8., 1., 1., 7., 5., 4., 3., 2., 2., 8., 0., 0., 2., 0., 7., 8.,
          3., 2., 0., 6., 4., 7., 4., 0., 9., 4., 9., 5., 3., 2., 14.,
          1., 1., 5., 3., 8., 5., 20., 1., 3., 3., 3., 3., 2., 0., 5.,
          0., 3., 1., 4. ]
      - [ 2., 0., 0., 5., 3., 4., 2., 5., 4., 1., 0., 0., 0., 3., 5., 3.,
          2., 1., 0., 3., 4., 2., 3., 1., 3., 0., 2., 1., 6., 2., 6., 4.,
          1., 2., 1., 1., 3., 14., 3., 2., 3., 3., 0., 4., 0., 2., 0.,
          1., 3., 8. ]
      - [ 4., 2., 0., 6., 2., 6., 0., 0., 0., 3., 0., 0., 1., 0., 5., 1.,
          2., 0., 0., 3., 0., 1., 1., 0., 0., 0., 1., 3., 2., 9., 4., 2.,
          0., 0., 0., 1., 0., 6., 1., 5., 2., 0., 1., 1., 0., 3., 0., 0.,
          0., 4. ]
      - [ 4., 6., 0., 13., 3., 9., 3., 3., 3., 3., 6., 1., 2., 1., 8.,
          3., 3., 2., 2., 8., 7., 9., 5., 4., 5., 0., 6., 4., 5., 5., 2.,
          7., 0., 2., 4., 5., 6., 10., 4., 6., 7., 1., 0., 3., 3., 4.,
          0., 2., 2., 0. ]
      - [ 2., 0., 1., 12., 2., 6., 2., 2., 3., 0., 1., 0., 0., 0., 1.,
          3., 5., 1., 1., 1., 11., 2., 0., 2., 1., 1., 1., 1., 0., 10.,
          0., 1., 2., 1., 1., 1., 0., 0., 7., 5., 5., 2., 2., 4., 2., 2.,
          1., 5., 2., 0. ]
      - [ 0., 8., 3., 5., 1., 1., 2., 4., 2., 5., 3., 2., 2., 1., 1., 3.,
          5., 0., 8., 3., 5., 2., 2., 7., 9., 7., 6., 8., 1., 1., 2., 5.,
          5., 2., 4., 2., 9., 4., 10., 1., 2., 3., 0., 8., 9., 2., 11.,
          8., 0., 6. ]
      - [ 0., 0., 1., 2., 3., 0., 2., 10., 10., 2., 5., 4., 9., 2., 4.,
          2., 1., 0., 5., 5., 6., 0., 0., 1., 3., 3., 2., 5., 5., 5., 2.,
          1., 1., 7., 8., 11., 13., 8., 12., 2., 4., 2., 0., 2., 5., 4.,
          7., 9., 1., 4. ]
      - [ 0., 0., 3., 5., 1., 0., 2., 7., 3., 1., 2., 2., 6., 3., 2., 1.,
          4., 0., 5., 3., 3., 0., 5., 14., 2., 1., 12., 13., 7., 6., 1.,
          1., 3., 0., 8., 8., 7., 15., 10., 4., 6., 5., 0., 5., 2., 0.,
          6., 1., 1., 4. ]
      - [ 2., 6., 4., 4., 0., 1., 2., 3., 3., 1., 1., 10., 7., 3., 5.,
          4., 6., 0., 5., 3., 5., 1., 3., 9., 4., 9., 8., 2., 3., 1., 3.,
          5., 4., 2., 0., 0., 10., 1., 14., 4., 1., 2., 1., 3., 7., 5.,
          9., 12., 1., 1. ]
      - [ 0., 0., 3., 6., 0., 1., 1., 3., 1., 6., 8., 5., 4., 2., 4., 3.,
          11., 0., 4., 2., 3., 1., 3., 3., 5., 1., 6., 8., 2., 5., 1.,
          3., 7., 3., 6., 16., 12., 9., 1., 2., 5., 1., 0., 2., 4., 5.,
          5., 5., 1., 11. ]
      - [ 0., 1., 3., 2., 1., 0., 2., 0., 5., 4., 2., 6., 0., 0., 2., 0.,
          1., 0., 1., 3., 8., 1., 4., 15., 5., 0., 5., 11., 1., 2., 1.,
          4., 1., 1., 2., 4., 21., 1., 13., 0., 1., 0., 0., 4., 10., 1.,
          7., 1., 3., 1. ]
      - [ 0., 1., 8., 0., 0., 0., 4., 3., 0., 6., 6., 1., 0., 2., 12.,
          2., 3., 0., 3., 5., 0., 0., 3., 4., 8., 7., 1., 1., 1., 3., 0.,
          1., 7., 0., 2., 2., 9., 1., 2., 0., 3., 4., 0., 5., 8., 1., 3.,
          7., 2., 5. ]
      - [ 0., 2., 0., 2., 3., 0., 1., 6., 3., 1., 1., 4., 2., 3., 25.,
          4., 0., 0., 7., 0., 3., 0., 0., 4., 6., 11., 1., 9., 2., 2.,
          2., 0., 2., 5., 2., 2., 13., 5., 9., 3., 1., 5., 0., 7., 6.,
          3., 9., 18., 4., 2. ]
      - [ 0., 0., 6., 3., 4., 5., 2., 2., 5., 1., 3., 4., 3., 2., 4., 2.,
          4., 0., 5., 2., 4., 1., 6., 1., 4., 9., 4., 3., 8., 7., 5., 4.,
          2., 5., 1., 3., 15., 2., 1., 10., 1., 4., 0., 4., 8., 9., 4.,
          13., 2., 4. ]
      - [ 0., 0., 3., 7., 1., 4., 4., 6., 0., 3., 6., 2., 4., 7., 1., 6.,
          4., 0., 5., 5., 3., 0., 1., 3., 8., 3., 2., 1., 1., 6., 2., 0.,
          11., 6., 9., 10., 10., 4., 3., 1., 3., 6., 1., 3., 10., 8., 4.,
          2., 1., 10. ]
      - [ 0., 1., 6., 3., 0., 4., 5., 4., 1., 3., 5., 1., 2., 1., 2., 2.,
          7., 0., 0., 10., 1., 0., 1., 19., 8., 1., 2., 8., 3., 1., 1.,
          7., 7., 0., 9., 8., 2., 9., 4., 1., 2., 7., 0., 8., 14., 0.,
          6., 3., 3., 9. ]
      - [ 0., 4., 4., 3., 1., 4., 6., 4., 5., 3., 11., 5., 6., 4., 1.,
          6., 1., 0., 4., 6., 4., 0., 5., 4., 12., 3., 1., 9., 1., 0.,
          1., 4., 5., 0., 5., 3., 6., 6., 5., 3., 0., 3., 1., 7., 10.,
          3., 5., 7., 2., 7. ]
      - [ 0., 0., 7., 2., 1., 2., 10., 8., 1., 3., 5., 1., 2., 3., 2.,
          2., 2., 0., 3., 9., 4., 0., 2., 8., 19., 2., 4., 4., 2., 4.,
          2., 4., 5., 5., 7., 4., 2., 5., 5., 2., 2., 10., 0., 6., 7.,
          1., 7., 6., 3., 6. ]
      - [ 0., 4., 3., 3., 4., 1., 3., 7., 2., 5., 9., 3., 3., 3., 2., 2.,
